################################################################################
# Neural network connection values (weights and biases).
################################################################################
# Col  Name       Description
################################################################################
# 1    connection Neural network connection value.
# 2    t          Connection type (a = weight, b = bias).
# 3    index      Index enumerating weights.
# 4    l_s        Starting point layer (end point layer for biases).
# 5    n_s        Starting point neuron in starting layer (end point neuron for biases).
# 6    l_e        End point layer.
# 7    n_e        End point neuron in end layer.
################################################################################
#                      1 2         3     4     5     6     7
#             connection t     index   l_s   n_s   l_e   n_e
############################################################
  4.8128167909890399E-02 a         1     0     1     1     1
  1.9861823873375153E-01 a         2     0     1     1     2
 -4.9845468166676216E-04 a         3     0     1     1     3
 -5.6411266250187810E-02 a         4     0     1     1     4
 -1.0645887769869683E-01 a         5     0     1     1     5
 -1.4097876153327799E-02 a         6     0     1     1     6
  3.2472121829367789E-02 a         7     0     1     1     7
  4.8637920270850940E-02 a         8     0     1     1     8
 -4.0785839612919511E-02 a         9     0     1     1     9
  1.6863027849153826E-02 a        10     0     1     1    10
  4.5452206729557292E-02 a        11     0     1     1    11
  6.6302613917408021E-02 a        12     0     1     1    12
  7.5764884395933763E-02 a        13     0     1     1    13
  1.0579711113113191E-01 a        14     0     1     1    14
 -1.6780948959575701E-01 a        15     0     1     1    15
  1.0570428788493035E-01 a        16     0     1     1    16
 -1.8713108868514164E-01 a        17     0     1     1    17
 -1.5377019145709790E-02 a        18     0     1     1    18
 -1.7488712461199957E-01 a        19     0     1     1    19
 -1.9307047925565968E-01 a        20     0     1     1    20
 -1.8649392326619957E-01 a        21     0     2     1     1
 -1.0602218980957404E-01 a        22     0     2     1     2
 -2.6340225446825617E-02 a        23     0     2     1     3
  6.8157110870559895E-02 a        24     0     2     1     4
 -5.4751640899227891E-02 a        25     0     2     1     5
  1.6763651664206510E-02 a        26     0     2     1     6
 -1.5768775714244737E-01 a        27     0     2     1     7
  1.9080640643801227E-02 a        28     0     2     1     8
 -5.9391454503430391E-02 a        29     0     2     1     9
 -3.0827875296657602E-02 a        30     0     2     1    10
 -1.1117915078066835E-01 a        31     0     2     1    11
  6.8308257852244114E-01 a        32     0     2     1    12
  2.2774147260113892E-01 a        33     0     2     1    13
  1.2437991686292375E-01 a        34     0     2     1    14
  1.1985827380421436E-01 a        35     0     2     1    15
  2.0558818566584025E-01 a        36     0     2     1    16
 -1.7809494587194044E-01 a        37     0     2     1    17
 -2.4076385986042170E-01 a        38     0     2     1    18
  1.9174397156725839E-01 a        39     0     2     1    19
 -1.0340718141800270E-01 a        40     0     2     1    20
  1.8384003788889214E-01 a        41     0     3     1     1
  1.3464725115579015E-01 a        42     0     3     1     2
 -1.3551187379450932E-01 a        43     0     3     1     3
  1.7346193933173826E-02 a        44     0     3     1     4
  2.0395575996327189E-01 a        45     0     3     1     5
  7.8434781863837788E-02 a        46     0     3     1     6
 -1.1743004490669613E-01 a        47     0     3     1     7
  1.6423234604260231E-01 a        48     0     3     1     8
 -1.3319633503799957E-01 a        49     0     3     1     9
 -1.9287370635623452E-01 a        50     0     3     1    10
  1.6263088192941327E-01 a        51     0     3     1    11
 -5.5552878376265427E-03 a        52     0     3     1    12
  1.7539741436108458E-01 a        53     0     3     1    13
  3.0710468047840906E-02 a        54     0     3     1    14
  9.1342500189290875E-03 a        55     0     3     1    15
  1.8554268603487362E-01 a        56     0     3     1    16
 -4.2243056297998419E-02 a        57     0     3     1    17
 -1.3074773083529223E-01 a        58     0     3     1    18
 -1.1007475855993641E-01 a        59     0     3     1    19
  1.4327356695549365E-01 a        60     0     3     1    20
  5.4926346213602217E-03 a        61     0     4     1     1
  2.9143838249736981E-01 a        62     0     4     1     2
 -8.6489172788908122E-02 a        63     0     4     1     3
  2.9348513008556926E-02 a        64     0     4     1     4
  4.4201803615585905E-01 a        65     0     4     1     5
  3.2939750677627383E-01 a        66     0     4     1     6
  1.6984806588773302E-01 a        67     0     4     1     7
  2.3295839467515314E-01 a        68     0     4     1     8
  1.9199950530765117E-01 a        69     0     4     1     9
  2.1499445436963908E-02 a        70     0     4     1    10
  1.3291351817695229E-01 a        71     0     4     1    11
 -4.7364533016702537E-01 a        72     0     4     1    12
  8.1662889853999876E-01 a        73     0     4     1    13
  1.8016566165967313E-01 a        74     0     4     1    14
  6.6103004861217299E-02 a        75     0     4     1    15
  8.1232395634511248E-02 a        76     0     4     1    16
 -9.8762114165407011E-01 a        77     0     4     1    17
 -6.3854927798460104E-01 a        78     0     4     1    18
 -4.7482098513887135E-02 a        79     0     4     1    19
 -6.0836190429404604E-03 a        80     0     4     1    20
 -1.2434279230748313E-01 a        81     0     5     1     1
  1.1005913655136644E-03 a        82     0     5     1     2
 -1.8168981238746501E-01 a        83     0     5     1     3
  2.9433426331731141E-02 a        84     0     5     1     4
  4.7426501036692506E-02 a        85     0     5     1     5
 -1.1572543201993303E-02 a        86     0     5     1     6
  1.2338279542641704E-01 a        87     0     5     1     7
  3.6914167946863335E-02 a        88     0     5     1     8
  1.6343279216444923E-01 a        89     0     5     1     9
  2.8816119018365453E-02 a        90     0     5     1    10
  3.1400232858974080E-02 a        91     0     5     1    11
 -2.2001402413030363E-02 a        92     0     5     1    12
  1.7470097690100236E-01 a        93     0     5     1    13
  1.8048747627605749E-01 a        94     0     5     1    14
 -1.4194081897289848E-01 a        95     0     5     1    15
  1.0181081742450500E-01 a        96     0     5     1    16
  1.1286989616526420E-01 a        97     0     5     1    17
  9.7962304211062542E-02 a        98     0     5     1    18
  1.8977801356890031E-01 a        99     0     5     1    19
  1.7255501420935521E-01 a       100     0     5     1    20
 -7.5305437832840749E-01 a       101     0     6     1     1
  7.9049404897332920E-01 a       102     0     6     1     2
  4.1498977086808518E-02 a       103     0     6     1     3
 -4.8934223741338451E-01 a       104     0     6     1     4
  1.8172812589635281E+00 a       105     0     6     1     5
  5.1444468579476221E-01 a       106     0     6     1     6
  2.5654952163770367E-01 a       107     0     6     1     7
  9.4842017186714436E-02 a       108     0     6     1     8
  8.2397225884634584E-01 a       109     0     6     1     9
  1.2757369442921762E+00 a       110     0     6     1    10
 -2.4836214007483390E-01 a       111     0     6     1    11
 -3.8978346138659026E-01 a       112     0     6     1    12
  7.9700184069666502E-01 a       113     0     6     1    13
  2.6569920960868237E-01 a       114     0     6     1    14
  6.1584394163239697E-01 a       115     0     6     1    15
  2.4628567882582106E-01 a       116     0     6     1    16
  1.6931845283891622E-01 a       117     0     6     1    17
 -2.2088793729500236E-01 a       118     0     6     1    18
 -6.9073747261220086E-01 a       119     0     6     1    19
 -5.5865123056537636E-01 a       120     0     6     1    20
 -1.1452741747185281E-01 a       121     0     7     1     1
  1.8327371302552947E-01 a       122     0     7     1     2
 -1.0305473337251755E-01 a       123     0     7     1     3
  1.9593967494061662E-01 a       124     0     7     1     4
 -1.9262528848138956E-02 a       125     0     7     1     5
 -2.3173475577937978E-02 a       126     0     7     1     6
  1.1229530005527791E-01 a       127     0     7     1     7
  7.5383050943858318E-02 a       128     0     7     1     8
 -7.6938971491999200E-02 a       129     0     7     1     9
 -7.1233434111503688E-03 a       130     0     7     1    10
 -2.1292052099933953E-01 a       131     0     7     1    11
  1.0769488888543818E-01 a       132     0     7     1    12
 -2.2063927485838991E-01 a       133     0     7     1    13
 -3.2410680779868056E-02 a       134     0     7     1    14
 -1.8086892504160693E-02 a       135     0     7     1    15
  4.6330897425302546E-02 a       136     0     7     1    16
 -8.3860528772991272E-02 a       137     0     7     1    17
 -1.9618674810864473E-01 a       138     0     7     1    18
 -6.8357553730398965E-02 a       139     0     7     1    19
  1.1724509027830060E-01 a       140     0     7     1    20
 -2.0451511521718126E+00 a       141     0     8     1     1
  1.9702364350433907E+00 a       142     0     8     1     2
  1.1081299174823422E-01 a       143     0     8     1     3
 -1.3531867516313083E+00 a       144     0     8     1     4
  3.7623961963283334E+00 a       145     0     8     1     5
 -2.9715391315226258E-01 a       146     0     8     1     6
  1.2637085104333647E+00 a       147     0     8     1     7
  5.2711217087021989E-01 a       148     0     8     1     8
  2.1082739538965667E+00 a       149     0     8     1     9
  3.1486412769518117E+00 a       150     0     8     1    10
 -7.8273520806205699E-01 a       151     0     8     1    11
 -1.9254366705229578E-01 a       152     0     8     1    12
  1.0594024212010373E+00 a       153     0     8     1    13
  1.1282021078287761E-01 a       154     0     8     1    14
  9.1540722445543588E-01 a       155     0     8     1    15
  9.0097061084205976E-01 a       156     0     8     1    16
  9.3279589490237325E-01 a       157     0     8     1    17
 -7.2180057465413519E-02 a       158     0     8     1    18
 -1.9464006851529503E+00 a       159     0     8     1    19
 -1.7518113780185041E+00 a       160     0     8     1    20
 -1.5700414564116284E-02 a       161     0     9     1     1
 -4.6761931324793220E-02 a       162     0     9     1     2
 -1.2334637471720296E-01 a       163     0     9     1     3
  1.9803115095267301E-02 a       164     0     9     1     4
 -3.3953835935369332E-02 a       165     0     9     1     5
 -2.3416793286855975E-02 a       166     0     9     1     6
 -5.3793103037968977E-02 a       167     0     9     1     7
 -1.7600877184341471E-01 a       168     0     9     1     8
 -9.1422467992715792E-02 a       169     0     9     1     9
 -9.6825421024600858E-02 a       170     0     9     1    10
 -1.9616729629053592E-01 a       171     0     9     1    11
  4.1475432666372747E-01 a       172     0     9     1    12
 -2.0294237768191423E-01 a       173     0     9     1    13
 -1.5171899051645815E-01 a       174     0     9     1    14
  3.1302446108759877E-03 a       175     0     9     1    15
 -6.4694168681383446E-02 a       176     0     9     1    16
 -2.8118729263570968E-01 a       177     0     9     1    17
 -3.7754664158350382E-01 a       178     0     9     1    18
  1.5989680782413255E-02 a       179     0     9     1    19
 -9.6222618821419442E-02 a       180     0     9     1    20
 -1.9779687005612947E+00 a       181     0    10     1     1
  1.9238280763291904E+00 a       182     0    10     1     2
 -1.0355075229921316E-01 a       183     0    10     1     3
 -1.2181331242640674E+00 a       184     0    10     1     4
  3.8382740314242456E+00 a       185     0    10     1     5
 -7.0392557111944909E-01 a       186     0    10     1     6
  9.8706299218307969E-01 a       187     0    10     1     7
  4.8596252670983464E-01 a       188     0    10     1     8
  1.7377399187283331E+00 a       189     0    10     1     9
  2.9222087479871601E+00 a       190     0    10     1    10
 -3.3337513400308261E-01 a       191     0    10     1    11
 -7.2472410636563817E-02 a       192     0    10     1    12
  3.4847670058387603E-01 a       193     0    10     1    13
  4.6247543155396625E-01 a       194     0    10     1    14
  9.5525223444997920E-01 a       195     0    10     1    15
  9.7762512634784227E-01 a       196     0    10     1    16
  4.6315023026427926E-01 a       197     0    10     1    17
  3.1942174698432794E-02 a       198     0    10     1    18
 -1.9769550859381144E+00 a       199     0    10     1    19
 -1.4686976459746339E+00 a       200     0    10     1    20
 -1.0108947412608798E-02 a       201     0    11     1     1
  3.5771401802414823E-03 a       202     0    11     1     2
  3.0521109668732926E-01 a       203     0    11     1     3
  1.2169943265951629E-01 a       204     0    11     1     4
  1.6726488016180735E-01 a       205     0    11     1     5
 -9.7028291548812318E-02 a       206     0    11     1     6
  2.5010184350976300E-01 a       207     0    11     1     7
  7.2122294848828969E-02 a       208     0    11     1     8
  1.2437324797679143E-01 a       209     0    11     1     9
  3.2493425268469996E-02 a       210     0    11     1    10
 -1.9746240551905878E-01 a       211     0    11     1    11
  2.9326346059498920E-01 a       212     0    11     1    12
 -1.9252634515519568E-01 a       213     0    11     1    13
  1.3761462913171463E-01 a       214     0    11     1    14
  1.1035761078528299E-01 a       215     0    11     1    15
  1.5014404178059648E-01 a       216     0    11     1    16
 -4.2198385946675188E-01 a       217     0    11     1    17
 -6.5962156577977893E-01 a       218     0    11     1    18
 -1.6770265310674715E-01 a       219     0    11     1    19
 -2.6832490470224396E-01 a       220     0    11     1    20
 -6.9502915091338657E-01 a       221     0    12     1     1
  8.9585109496118975E-01 a       222     0    12     1     2
  1.1713918009710036E-01 a       223     0    12     1     3
 -6.4704964900902884E-01 a       224     0    12     1     4
  1.3021345454630484E+00 a       225     0    12     1     5
 -9.5859832436168482E-02 a       226     0    12     1     6
  4.9147932736236544E-01 a       227     0    12     1     7
  2.5609044811760245E-01 a       228     0    12     1     8
  8.1223667924086929E-01 a       229     0    12     1     9
  1.3240671490788201E+00 a       230     0    12     1    10
 -2.9743462221159100E-01 a       231     0    12     1    11
 -4.8155848238556681E-01 a       232     0    12     1    12
  4.3394981294005047E-01 a       233     0    12     1    13
  5.9342608577992995E-01 a       234     0    12     1    14
  5.3507996563161941E-01 a       235     0    12     1    15
  4.5542626988502033E-01 a       236     0    12     1    16
  3.4518110398506080E-01 a       237     0    12     1    17
 -2.8208001657252263E-01 a       238     0    12     1    18
 -5.7452096563270627E-01 a       239     0    12     1    19
 -6.4562509559045744E-01 a       240     0    12     1    20
 -6.8720310046976718E-01 a       241     0    13     1     1
  4.2644006118132721E-01 a       242     0    13     1     2
  4.0499351620647807E-02 a       243     0    13     1     3
 -5.2495912169633741E-01 a       244     0    13     1     4
  1.2514393883165049E+00 a       245     0    13     1     5
  1.8806996348796340E-01 a       246     0    13     1     6
  4.1216000004240094E-01 a       247     0    13     1     7
  3.7406929263984290E-01 a       248     0    13     1     8
  5.0270145191418825E-01 a       249     0    13     1     9
  7.5149327879060135E-01 a       250     0    13     1    10
 -1.5011898926761646E-01 a       251     0    13     1    11
  1.1057421695314318E-01 a       252     0    13     1    12
 -2.2336282481440828E-01 a       253     0    13     1    13
  9.1734996322344567E-02 a       254     0    13     1    14
  1.2028775069694210E-01 a       255     0    13     1    15
  2.4826317397256878E-01 a       256     0    13     1    16
 -1.8855426306991480E-01 a       257     0    13     1    17
 -6.4604136942558274E-02 a       258     0    13     1    18
 -6.2433215682543508E-01 a       259     0    13     1    19
 -6.7185949474429563E-01 a       260     0    13     1    20
 -3.3984222408233983E-02 a       261     0    14     1     1
  1.1417418945351643E-01 a       262     0    14     1     2
  3.1197143256125759E-01 a       263     0    14     1     3
 -2.7251587630565988E-01 a       264     0    14     1     4
  3.8729284498912669E-01 a       265     0    14     1     5
 -8.5725585374649038E-01 a       266     0    14     1     6
  2.9445608445949156E-01 a       267     0    14     1     7
  2.3614270269253937E-01 a       268     0    14     1     8
  2.2875164064836181E-01 a       269     0    14     1     9
  4.4717759580027533E-01 a       270     0    14     1    10
 -1.7271027477117343E-01 a       271     0    14     1    11
  2.2722754082038898E-01 a       272     0    14     1    12
  6.7393375252240331E-02 a       273     0    14     1    13
 -7.2408802444285728E-02 a       274     0    14     1    14
  2.6250334538328296E-01 a       275     0    14     1    15
  1.7705150307670323E-01 a       276     0    14     1    16
 -8.0193351446809252E-02 a       277     0    14     1    17
 -4.7974191586412507E-01 a       278     0    14     1    18
 -4.7212596850161527E-02 a       279     0    14     1    19
  5.8110269558939484E-02 a       280     0    14     1    20
 -1.6980456546647917E+00 a       281     0    15     1     1
  1.7908440612822289E+00 a       282     0    15     1     2
  1.2211394016585621E-01 a       283     0    15     1     3
 -1.2305114573863940E+00 a       284     0    15     1     4
  3.2853741356677242E+00 a       285     0    15     1     5
 -1.2905590031044428E-01 a       286     0    15     1     6
  8.4194184133189942E-01 a       287     0    15     1     7
  6.9283600863051997E-01 a       288     0    15     1     8
  1.7111732637207764E+00 a       289     0    15     1     9
  2.6149395768173394E+00 a       290     0    15     1    10
 -2.2554815393986660E-01 a       291     0    15     1    11
  2.5141240917307317E-01 a       292     0    15     1    12
  1.1848969315632428E-01 a       293     0    15     1    13
  4.3511238976515626E-01 a       294     0    15     1    14
  7.0421009334510754E-01 a       295     0    15     1    15
  1.1036408482259372E+00 a       296     0    15     1    16
  5.0525984069790719E-01 a       297     0    15     1    17
 -8.6337682908922339E-02 a       298     0    15     1    18
 -1.7170394270312741E+00 a       299     0    15     1    19
 -1.3040172817542366E+00 a       300     0    15     1    20
 -2.3294963524505910E-01 a       301     0    16     1     1
  9.6908799081104738E-02 a       302     0    16     1     2
  1.9963685730996744E-01 a       303     0    16     1     3
 -2.5705410574498833E-01 a       304     0    16     1     4
  8.1490784728898064E-02 a       305     0    16     1     5
 -6.4625863604921341E-01 a       306     0    16     1     6
  9.9537352402626247E-02 a       307     0    16     1     7
  1.9549417198046121E-01 a       308     0    16     1     8
  1.9170517183970842E-01 a       309     0    16     1     9
  3.2278995408240763E-01 a       310     0    16     1    10
 -1.4031539772716950E-01 a       311     0    16     1    11
 -4.4641314212959426E-01 a       312     0    16     1    12
  5.9625584813323385E-01 a       313     0    16     1    13
  4.5684967818518671E-03 a       314     0    16     1    14
  1.2461802573907720E-01 a       315     0    16     1    15
  6.1410229655241289E-03 a       316     0    16     1    16
 -1.3847381104228007E-01 a       317     0    16     1    17
  8.9133456691681781E-02 a       318     0    16     1    18
 -1.7383345556787350E-01 a       319     0    16     1    19
 -7.1776968543962177E-02 a       320     0    16     1    20
 -1.9780275213567076E+00 a       321     0    17     1     1
  1.9897646501457811E+00 a       322     0    17     1     2
  2.1331689278045377E-01 a       323     0    17     1     3
 -1.2645318023404013E+00 a       324     0    17     1     4
  3.9992484100583363E+00 a       325     0    17     1     5
  1.3227947016542708E-02 a       326     0    17     1     6
  1.1202578921325135E+00 a       327     0    17     1     7
  6.0640324721393568E-01 a       328     0    17     1     8
  2.1354810631220214E+00 a       329     0    17     1     9
  3.3707097244652338E+00 a       330     0    17     1    10
 -3.1961648741261384E-01 a       331     0    17     1    11
  3.6119707012939248E-02 a       332     0    17     1    12
 -3.8513303672889404E-01 a       333     0    17     1    13
  7.7038593922797927E-01 a       334     0    17     1    14
  9.0167401444704409E-01 a       335     0    17     1    15
  1.1756945448293785E+00 a       336     0    17     1    16
  4.8928341070337167E-01 a       337     0    17     1    17
  2.3593445315194905E-01 a       338     0    17     1    18
 -1.9222260681883956E+00 a       339     0    17     1    19
 -1.5846850570579798E+00 a       340     0    17     1    20
 -3.3515679591084235E-01 a       341     0    18     1     1
  5.8351234957805376E-01 a       342     0    18     1     2
 -1.2866936692403561E-01 a       343     0    18     1     3
 -1.5201050942352232E-01 a       344     0    18     1     4
  7.6946426179851468E-01 a       345     0    18     1     5
  5.1286818484942076E-01 a       346     0    18     1     6
  4.4398968924638044E-01 a       347     0    18     1     7
  6.2345144107965059E-02 a       348     0    18     1     8
  4.8385554820501875E-01 a       349     0    18     1     9
  7.5744297959243245E-01 a       350     0    18     1    10
 -1.4228258070828084E-02 a       351     0    18     1    11
 -7.5155164027010765E-02 a       352     0    18     1    12
  4.6364133707783228E-01 a       353     0    18     1    13
  3.2432794857970659E-01 a       354     0    18     1    14
  1.9753734406904724E-01 a       355     0    18     1    15
  7.9451167101335873E-02 a       356     0    18     1    16
 -2.3900398733692169E-01 a       357     0    18     1    17
  5.8613147169535723E-02 a       358     0    18     1    18
 -3.5758170453403754E-01 a       359     0    18     1    19
 -5.0400857736635418E-01 a       360     0    18     1    20
 -1.2129386095504926E+00 a       361     0    19     1     1
  1.1879839696412449E+00 a       362     0    19     1     2
  3.1322778821802927E-01 a       363     0    19     1     3
 -7.6945668191964423E-01 a       364     0    19     1     4
  1.8499487669045833E+00 a       365     0    19     1     5
  6.0419763290928963E-01 a       366     0    19     1     6
  5.7023844670974055E-01 a       367     0    19     1     7
  4.8279841873221585E-01 a       368     0    19     1     8
  1.1200671017337553E+00 a       369     0    19     1     9
  1.4816561965456871E+00 a       370     0    19     1    10
 -4.5109506910810802E-02 a       371     0    19     1    11
  9.4951516107336820E-02 a       372     0    19     1    12
  3.5206908350064098E-01 a       373     0    19     1    13
  2.6558960178702112E-01 a       374     0    19     1    14
  5.6788556498604248E-01 a       375     0    19     1    15
  6.6712198956328994E-01 a       376     0    19     1    16
  3.0579033886927914E-01 a       377     0    19     1    17
 -2.6926650647275452E-01 a       378     0    19     1    18
 -1.2246917406727600E+00 a       379     0    19     1    19
 -9.7638890197448303E-01 a       380     0    19     1    20
 -7.4458378752946541E-01 a       381     0    20     1     1
  7.3670628933171922E-01 a       382     0    20     1     2
 -1.0313457885887301E-01 a       383     0    20     1     3
 -4.5147596261870587E-01 a       384     0    20     1     4
  1.3956341731477029E+00 a       385     0    20     1     5
  5.3398282609027714E-01 a       386     0    20     1     6
  4.3546336590863793E-01 a       387     0    20     1     7
  3.8232110996246693E-01 a       388     0    20     1     8
  6.8697128361636894E-01 a       389     0    20     1     9
  1.3527612408928189E+00 a       390     0    20     1    10
  8.2864788642812472E-03 a       391     0    20     1    11
 -2.4186569427108978E-01 a       392     0    20     1    12
  1.9307044595342801E-01 a       393     0    20     1    13
 -2.2025707608052180E-02 a       394     0    20     1    14
  3.9485768670536908E-01 a       395     0    20     1    15
  4.9554724632069203E-01 a       396     0    20     1    16
 -2.6682796190501817E-01 a       397     0    20     1    17
  1.6272184875780266E-02 a       398     0    20     1    18
 -1.0075562614698252E+00 a       399     0    20     1    19
 -6.8341439545475124E-01 a       400     0    20     1    20
 -2.0122975311572408E-01 a       401     0    21     1     1
  4.0712189468694748E-01 a       402     0    21     1     2
  1.4957567985106407E-01 a       403     0    21     1     3
 -1.1140825635976723E-01 a       404     0    21     1     4
  7.4801843967099813E-01 a       405     0    21     1     5
  2.1858534205553279E-01 a       406     0    21     1     6
  7.3139985424658271E-02 a       407     0    21     1     7
  1.2676818335168014E-01 a       408     0    21     1     8
  2.5558177961825851E-01 a       409     0    21     1     9
  2.9230919034138730E-01 a       410     0    21     1    10
 -5.7054510872783640E-02 a       411     0    21     1    11
  5.2889614319017328E-02 a       412     0    21     1    12
  1.4079512975971648E-01 a       413     0    21     1    13
  2.5721994045800078E-01 a       414     0    21     1    14
  2.0642015324086216E-02 a       415     0    21     1    15
  1.9967122083658173E-01 a       416     0    21     1    16
  2.5399148889407241E-01 a       417     0    21     1    17
 -2.6465339985397301E-01 a       418     0    21     1    18
 -4.8683784149081227E-01 a       419     0    21     1    19
 -1.2881695769450749E-01 a       420     0    21     1    20
 -6.5284170574767830E-01 a       421     0    22     1     1
  5.0250943751618105E-01 a       422     0    22     1     2
  9.9798616042795024E-02 a       423     0    22     1     3
 -3.7507693188974911E-01 a       424     0    22     1     4
  1.1135636362601080E+00 a       425     0    22     1     5
  3.0354251846804131E-01 a       426     0    22     1     6
  1.3777658161482625E-01 a       427     0    22     1     7
  1.8774764091870874E-01 a       428     0    22     1     8
  6.5014064735306321E-01 a       429     0    22     1     9
  8.8623093333487557E-01 a       430     0    22     1    10
 -1.2584790939906118E-01 a       431     0    22     1    11
 -2.0484314809914189E-01 a       432     0    22     1    12
  3.5368508990417671E-03 a       433     0    22     1    13
  2.5631719859388313E-01 a       434     0    22     1    14
  3.5235952572250229E-01 a       435     0    22     1    15
  2.8481932219803724E-01 a       436     0    22     1    16
 -2.4540574408193064E-01 a       437     0    22     1    17
 -4.5427350241002619E-02 a       438     0    22     1    18
 -7.0286918588159131E-01 a       439     0    22     1    19
 -4.0224593931471453E-01 a       440     0    22     1    20
  1.6805079013732654E-02 a       441     0    23     1     1
  1.0116104500119423E-01 a       442     0    23     1     2
 -6.5242310272559917E-02 a       443     0    23     1     3
  8.6563584231400259E-03 a       444     0    23     1     4
  3.9381776548424591E-01 a       445     0    23     1     5
 -3.5447359638637321E-01 a       446     0    23     1     6
 -4.1989807267117339E-02 a       447     0    23     1     7
 -8.6265953953740121E-02 a       448     0    23     1     8
  2.0163059035622774E-01 a       449     0    23     1     9
  1.7725506813448602E-01 a       450     0    23     1    10
 -1.7552271525492799E-01 a       451     0    23     1    11
  8.2303212204513379E-02 a       452     0    23     1    12
 -1.4286319240065853E-01 a       453     0    23     1    13
  2.4206933900735125E-01 a       454     0    23     1    14
  2.4952933785943834E-01 a       455     0    23     1    15
  3.1993829555692903E-02 a       456     0    23     1    16
  5.5213984547169903E-01 a       457     0    23     1    17
  1.0087192275362658E-03 a       458     0    23     1    18
 -2.2617842135008528E-02 a       459     0    23     1    19
  4.5134089180689854E-02 a       460     0    23     1    20
 -2.0378934476191041E-01 a       461     0    24     1     1
  2.7180450087523322E-01 a       462     0    24     1     2
  3.5012648372960274E-02 a       463     0    24     1     3
 -1.6444721429209205E-01 a       464     0    24     1     4
  1.3764201421548922E-01 a       465     0    24     1     5
  1.1163625773508393E-01 a       466     0    24     1     6
  7.4590545625241186E-02 a       467     0    24     1     7
  2.2706523751798341E-01 a       468     0    24     1     8
  7.8517853488207195E-02 a       469     0    24     1     9
  1.3078242543824298E-01 a       470     0    24     1    10
  8.5198607284867525E-03 a       471     0    24     1    11
 -3.0971808477005652E-01 a       472     0    24     1    12
 -5.6234485815956226E-01 a       473     0    24     1    13
 -2.9519050720814177E-02 a       474     0    24     1    14
 -8.5950913415347358E-02 a       475     0    24     1    15
  2.3721682834407032E-01 a       476     0    24     1    16
  1.4876445787537224E-01 a       477     0    24     1    17
 -1.1246847156197901E-01 a       478     0    24     1    18
 -3.0033076041287288E-01 a       479     0    24     1    19
 -1.5027227505290389E-01 a       480     0    24     1    20
 -2.6854459045195200E-01 a       481     0    25     1     1
  2.0806681645732242E-01 a       482     0    25     1     2
  2.2193996155998496E-02 a       483     0    25     1     3
 -6.7937081305192229E-02 a       484     0    25     1     4
  5.0789124687484521E-01 a       485     0    25     1     5
 -1.0727007163291045E-01 a       486     0    25     1     6
  1.7771188759419315E-01 a       487     0    25     1     7
 -6.6647273697138562E-02 a       488     0    25     1     8
  7.8950850855095261E-02 a       489     0    25     1     9
  3.2495757647944329E-01 a       490     0    25     1    10
  4.2941190594593545E-02 a       491     0    25     1    11
  3.4891518347631649E-02 a       492     0    25     1    12
 -1.0607725760388091E-01 a       493     0    25     1    13
 -8.2043547353978327E-02 a       494     0    25     1    14
 -9.6225084919239937E-02 a       495     0    25     1    15
 -1.0383949216830997E-01 a       496     0    25     1    16
 -2.5618019374547985E-01 a       497     0    25     1    17
 -1.4151465827695481E-01 a       498     0    25     1    18
 -6.0336187448613542E-02 a       499     0    25     1    19
  7.0693546600926319E-02 a       500     0    25     1    20
 -1.7567203504264992E-01 a       501     0    26     1     1
  3.7346920542368059E-02 a       502     0    26     1     2
 -9.1333573456186992E-02 a       503     0    26     1     3
 -1.8165070296199473E-03 a       504     0    26     1     4
  1.2394734082063665E-01 a       505     0    26     1     5
 -1.1096339960568859E-01 a       506     0    26     1     6
 -1.5077244772988521E-01 a       507     0    26     1     7
  8.9731112884110370E-02 a       508     0    26     1     8
 -3.3969586988344541E-02 a       509     0    26     1     9
 -1.2938801565599817E-01 a       510     0    26     1    10
 -1.2957928227963586E-01 a       511     0    26     1    11
  2.3155230041752894E-01 a       512     0    26     1    12
 -6.1002748677125973E-01 a       513     0    26     1    13
  1.0241668235014634E-01 a       514     0    26     1    14
  8.1959742106285614E-03 a       515     0    26     1    15
  1.6064951951900447E-01 a       516     0    26     1    16
  1.6776599595353525E-01 a       517     0    26     1    17
  5.3244642231332850E-02 a       518     0    26     1    18
 -2.3106006166604404E-01 a       519     0    26     1    19
 -1.8114778618551844E-01 a       520     0    26     1    20
 -2.7388388248447543E-02 a       521     0    27     1     1
  9.0549001583494580E-03 a       522     0    27     1     2
  1.6883949300977547E-01 a       523     0    27     1     3
 -1.4289591931302401E-01 a       524     0    27     1     4
  1.1134687028788222E-01 a       525     0    27     1     5
 -1.7674183291529720E-02 a       526     0    27     1     6
  1.5725866501008151E-01 a       527     0    27     1     7
 -1.7049010546430052E-03 a       528     0    27     1     8
 -4.4057533511969151E-02 a       529     0    27     1     9
  3.0712068365929623E-01 a       530     0    27     1    10
 -1.3535729193565126E-02 a       531     0    27     1    11
  1.7303748810951541E-01 a       532     0    27     1    12
  2.1269175327862269E-01 a       533     0    27     1    13
 -1.3191272523584499E-01 a       534     0    27     1    14
 -2.9354966443040066E-02 a       535     0    27     1    15
  1.4170779459832297E-01 a       536     0    27     1    16
  3.7762972139726382E-02 a       537     0    27     1    17
  2.4735252550823372E-02 a       538     0    27     1    18
 -2.2318007072535667E-01 a       539     0    27     1    19
 -2.3495237952846934E-01 a       540     0    27     1    20
 -1.7727973074739942E-01 a       541     0    28     1     1
  9.8425045205416090E-02 a       542     0    28     1     2
 -3.9498246987422936E-02 a       543     0    28     1     3
 -8.6618949626559125E-02 a       544     0    28     1     4
 -6.0655879584165483E-02 a       545     0    28     1     5
 -4.7325788512845947E-02 a       546     0    28     1     6
  9.0474136981231981E-02 a       547     0    28     1     7
  1.7882450921261137E-01 a       548     0    28     1     8
  1.9610479815871526E-01 a       549     0    28     1     9
  5.6092817190745176E-03 a       550     0    28     1    10
  9.1350457258285597E-02 a       551     0    28     1    11
 -2.5925781812757442E-01 a       552     0    28     1    12
  1.5592293017433845E-01 a       553     0    28     1    13
 -1.7208465698338810E-01 a       554     0    28     1    14
  4.3107744236575672E-02 a       555     0    28     1    15
  1.4779582210587477E-01 a       556     0    28     1    16
  2.8106008991659387E-01 a       557     0    28     1    17
  7.6876346844093460E-02 a       558     0    28     1    18
  2.0796133672844871E-01 a       559     0    28     1    19
  1.9836105144791786E-02 a       560     0    28     1    20
 -7.9867460492447057E-02 a       561     0    29     1     1
 -7.3169705323571907E-02 a       562     0    29     1     2
 -9.9335099724102843E-02 a       563     0    29     1     3
 -1.0514207090599113E-01 a       564     0    29     1     4
 -5.1382166129779513E-02 a       565     0    29     1     5
  8.0656906676096221E-02 a       566     0    29     1     6
  1.8180993942668064E-01 a       567     0    29     1     7
  5.0775377462705891E-02 a       568     0    29     1     8
  8.8565888243259758E-03 a       569     0    29     1     9
  1.4616970404491145E-01 a       570     0    29     1    10
 -7.4619970023159454E-02 a       571     0    29     1    11
 -7.1137051662436626E-02 a       572     0    29     1    12
 -4.0879494115546304E-02 a       573     0    29     1    13
  7.0216533447637522E-02 a       574     0    29     1    14
  2.2378801851810515E-02 a       575     0    29     1    15
 -1.1384355371534903E-01 a       576     0    29     1    16
  1.3678423158844033E-01 a       577     0    29     1    17
  7.8385853800654701E-02 a       578     0    29     1    18
 -2.1490720212800943E-01 a       579     0    29     1    19
 -1.7582978345256348E-01 a       580     0    29     1    20
 -1.2571207005775503E-01 a       581     0    30     1     1
  1.9728869359075840E-01 a       582     0    30     1     2
 -9.7353094859076797E-03 a       583     0    30     1     3
  2.0751088380148785E-02 a       584     0    30     1     4
  1.4596017754170234E-03 a       585     0    30     1     5
 -8.7144210293491092E-02 a       586     0    30     1     6
  1.8612537891036468E-01 a       587     0    30     1     7
 -2.1975294462377243E-01 a       588     0    30     1     8
  5.2068953817009406E-02 a       589     0    30     1     9
 -1.2443172284683027E-01 a       590     0    30     1    10
 -2.1815620418299719E-01 a       591     0    30     1    11
 -6.9937770774918695E-02 a       592     0    30     1    12
 -4.0248070435609073E-02 a       593     0    30     1    13
  1.3219092215934311E-01 a       594     0    30     1    14
  2.1006227573180039E-01 a       595     0    30     1    15
 -9.6450062880785545E-02 a       596     0    30     1    16
  1.4786625584688734E-01 a       597     0    30     1    17
 -5.4689746444592314E-03 a       598     0    30     1    18
  1.8421395534179291E-01 a       599     0    30     1    19
  6.4778185378747619E-02 a       600     0    30     1    20
  1.3010889432644770E-01 a       601     0    31     1     1
 -1.9032082506412051E-01 a       602     0    31     1     2
 -1.0696753921865668E-01 a       603     0    31     1     3
 -1.9911516439607393E-01 a       604     0    31     1     4
  1.5352988994541533E-01 a       605     0    31     1     5
 -1.0554440094869011E-03 a       606     0    31     1     6
  1.6394535591663231E-01 a       607     0    31     1     7
 -9.3177308987351826E-02 a       608     0    31     1     8
 -1.1556201937963370E-01 a       609     0    31     1     9
 -1.4124293271157609E-01 a       610     0    31     1    10
 -1.8636593357684988E-01 a       611     0    31     1    11
 -1.9980027375881093E-01 a       612     0    31     1    12
  1.6663367070054488E-01 a       613     0    31     1    13
  1.8541990255050439E-01 a       614     0    31     1    14
  1.1491602743262345E-01 a       615     0    31     1    15
 -1.2933659097768077E-01 a       616     0    31     1    16
  1.6720729039911886E-01 a       617     0    31     1    17
  1.8426676218392563E-01 a       618     0    31     1    18
 -9.5655103577726094E-02 a       619     0    31     1    19
 -1.4687497825800319E-01 a       620     0    31     1    20
  6.4573672345755742E-02 a       621     0    32     1     1
  1.0747310241755997E-01 a       622     0    32     1     2
  3.1335743022122421E-02 a       623     0    32     1     3
  1.0628062888781684E-01 a       624     0    32     1     4
  1.0326907472536296E-02 a       625     0    32     1     5
  6.2445472800835129E-02 a       626     0    32     1     6
  7.9447699221679977E-02 a       627     0    32     1     7
  1.5817694563655363E-01 a       628     0    32     1     8
 -3.1353720267248406E-02 a       629     0    32     1     9
  1.2855615409618176E-01 a       630     0    32     1    10
 -1.4723302963841414E-01 a       631     0    32     1    11
 -1.3029636730210276E-01 a       632     0    32     1    12
  7.6062565236892357E-03 a       633     0    32     1    13
  1.6196469405955635E-01 a       634     0    32     1    14
 -1.1801586056003396E-02 a       635     0    32     1    15
 -1.8925871434329308E-01 a       636     0    32     1    16
 -2.4826366817116091E-01 a       637     0    32     1    17
  8.8033488644724142E-02 a       638     0    32     1    18
  8.1958970010800519E-02 a       639     0    32     1    19
  1.6978838913375843E-01 a       640     0    32     1    20
  1.4797012438702470E-01 a       641     0    33     1     1
  8.8724560727148766E-02 a       642     0    33     1     2
 -1.1069174099269115E-01 a       643     0    33     1     3
 -1.3303607940199796E-01 a       644     0    33     1     4
 -1.5848407235698753E-01 a       645     0    33     1     5
 -1.8298356117187903E-01 a       646     0    33     1     6
  2.0697527520764192E-01 a       647     0    33     1     7
 -8.1034003967830878E-02 a       648     0    33     1     8
 -3.3287869745652864E-02 a       649     0    33     1     9
 -1.4818324253909335E-01 a       650     0    33     1    10
  1.8564520147323504E-01 a       651     0    33     1    11
  1.1004837231010145E-01 a       652     0    33     1    12
 -1.9435628268130947E-01 a       653     0    33     1    13
  2.0090390127291552E-02 a       654     0    33     1    14
 -1.6571430019051528E-01 a       655     0    33     1    15
  4.0661228168898271E-02 a       656     0    33     1    16
  2.0691753786521261E-01 a       657     0    33     1    17
  1.9295844874033766E-01 a       658     0    33     1    18
  7.2846920565133233E-03 a       659     0    33     1    19
  1.4992624670899032E-01 a       660     0    33     1    20
 -6.7567770772457764E-02 a       661     0    34     1     1
 -1.7008333231307276E-02 a       662     0    34     1     2
  5.5271658634875910E-03 a       663     0    34     1     3
  1.6074083265616138E-01 a       664     0    34     1     4
  1.1424400218159519E-01 a       665     0    34     1     5
 -1.8509382061108071E-01 a       666     0    34     1     6
 -1.3831182285300955E-01 a       667     0    34     1     7
 -1.5610868034388431E-01 a       668     0    34     1     8
  1.8361128866207554E-01 a       669     0    34     1     9
  8.0680333488209702E-02 a       670     0    34     1    10
 -2.0019042371479542E-01 a       671     0    34     1    11
 -1.9527592765816726E-02 a       672     0    34     1    12
  1.5346142265366611E-01 a       673     0    34     1    13
  8.8059073189723586E-02 a       674     0    34     1    14
 -8.1962260491442951E-02 a       675     0    34     1    15
 -1.5146422804775142E-01 a       676     0    34     1    16
  6.3551496623333219E-03 a       677     0    34     1    17
  1.3247145290648460E-01 a       678     0    34     1    18
  7.6117487538778131E-02 a       679     0    34     1    19
  2.6508799494882680E-02 a       680     0    34     1    20
  1.4931396301199479E-01 a       681     0    35     1     1
 -1.8749795047298989E-01 a       682     0    35     1     2
  1.5468536454850228E-02 a       683     0    35     1     3
 -6.7458607381919750E-02 a       684     0    35     1     4
 -1.6221047103018871E-01 a       685     0    35     1     5
 -1.6042777726602081E-01 a       686     0    35     1     6
 -9.2947348580517536E-02 a       687     0    35     1     7
 -1.4268562101344101E-01 a       688     0    35     1     8
  1.5122070160285075E-01 a       689     0    35     1     9
 -1.2745402127068825E-01 a       690     0    35     1    10
 -5.7533029874197554E-02 a       691     0    35     1    11
 -6.4860378518347264E-02 a       692     0    35     1    12
  1.7776672338657751E-02 a       693     0    35     1    13
 -7.7082456131268406E-02 a       694     0    35     1    14
  1.7163046626840256E-01 a       695     0    35     1    15
  2.1202631599258590E-02 a       696     0    35     1    16
  9.6838630750473512E-04 a       697     0    35     1    17
 -1.7973681628848881E-01 a       698     0    35     1    18
  1.8746714563581665E-01 a       699     0    35     1    19
  5.4521002558440904E-02 a       700     0    35     1    20
 -3.1094313895472233E-02 a       701     0    36     1     1
  6.2689167047977317E-03 a       702     0    36     1     2
  1.0235589796212360E-01 a       703     0    36     1     3
  2.2734843047522216E-02 a       704     0    36     1     4
 -2.0854578532305287E-01 a       705     0    36     1     5
 -1.1291234892421262E-01 a       706     0    36     1     6
 -1.6796483325775102E-01 a       707     0    36     1     7
  7.4832511488145639E-02 a       708     0    36     1     8
  6.4597127900010307E-02 a       709     0    36     1     9
  1.4773188426173296E-02 a       710     0    36     1    10
 -2.2896017662498866E-02 a       711     0    36     1    11
 -1.2865695256798187E-01 a       712     0    36     1    12
  4.4958380523893011E-02 a       713     0    36     1    13
 -2.7297290893326231E-02 a       714     0    36     1    14
  1.5046840902910941E-01 a       715     0    36     1    15
  1.1005548740313435E-01 a       716     0    36     1    16
 -3.7028058603863635E-02 a       717     0    36     1    17
 -6.2584893682493148E-02 a       718     0    36     1    18
  2.2742529330631880E-02 a       719     0    36     1    19
  1.8035377811839315E-01 a       720     0    36     1    20
  1.2758826045069849E-01 a       721     0    37     1     1
 -1.8291801703144567E-01 a       722     0    37     1     2
  2.0075553193594051E-01 a       723     0    37     1     3
  1.5761098124480485E-01 a       724     0    37     1     4
 -7.5205326231284883E-02 a       725     0    37     1     5
 -4.7853517749270963E-02 a       726     0    37     1     6
 -7.8658945512819628E-02 a       727     0    37     1     7
  1.7123869230286859E-01 a       728     0    37     1     8
  1.9147592967479823E-01 a       729     0    37     1     9
 -5.9697937449608468E-02 a       730     0    37     1    10
  8.5015209965684527E-02 a       731     0    37     1    11
 -2.1396145923771231E-01 a       732     0    37     1    12
 -2.0631794361702374E-01 a       733     0    37     1    13
 -1.9681787373496032E-01 a       734     0    37     1    14
  2.2773777539154123E-02 a       735     0    37     1    15
  7.1259468913992596E-02 a       736     0    37     1    16
 -1.9616363590817132E-01 a       737     0    37     1    17
 -1.1777707021108329E-01 a       738     0    37     1    18
  6.4735493731949506E-02 a       739     0    37     1    19
  6.1310982846813746E-03 a       740     0    37     1    20
 -1.0270238620019158E-01 a       741     0    38     1     1
 -1.0166453299088553E-02 a       742     0    38     1     2
 -2.0135424339234478E-01 a       743     0    38     1     3
 -1.5964520602189355E-01 a       744     0    38     1     4
  7.6423659788777435E-03 a       745     0    38     1     5
  2.1906834883724663E-01 a       746     0    38     1     6
  1.2760383233218212E-01 a       747     0    38     1     7
  1.5565067323602538E-01 a       748     0    38     1     8
 -1.0669852774810587E-01 a       749     0    38     1     9
 -1.1925049112333871E-01 a       750     0    38     1    10
 -1.1356575301067169E-01 a       751     0    38     1    11
  9.0446530007557799E-02 a       752     0    38     1    12
 -7.7529121676734078E-02 a       753     0    38     1    13
  2.4537757668653685E-02 a       754     0    38     1    14
 -1.5617216265928457E-01 a       755     0    38     1    15
  1.2547764131218553E-01 a       756     0    38     1    16
  1.7346648094107459E-01 a       757     0    38     1    17
 -1.5711364136838343E-01 a       758     0    38     1    18
  1.4758818954386110E-01 a       759     0    38     1    19
  1.4470225932654304E-01 a       760     0    38     1    20
 -4.6766237152317910E-02 a       761     0    39     1     1
  6.3823947844706228E-02 a       762     0    39     1     2
 -1.0551345688630938E-01 a       763     0    39     1     3
 -8.3447992627809539E-02 a       764     0    39     1     4
  3.7845079288978019E-02 a       765     0    39     1     5
  1.7319677309141424E-01 a       766     0    39     1     6
  2.1901688171483552E-02 a       767     0    39     1     7
  7.5467819746524972E-02 a       768     0    39     1     8
 -1.1578916900377242E-01 a       769     0    39     1     9
  1.7290898561584536E-01 a       770     0    39     1    10
 -1.2933730815034222E-01 a       771     0    39     1    11
  1.6705195280419874E-01 a       772     0    39     1    12
 -5.0194541621952381E-02 a       773     0    39     1    13
  1.0345637238441142E-01 a       774     0    39     1    14
 -1.5349933686870382E-01 a       775     0    39     1    15
  7.7739842818475369E-03 a       776     0    39     1    16
  3.6929656001448527E-02 a       777     0    39     1    17
 -1.9314319696719212E-01 a       778     0    39     1    18
  5.4743019755420140E-02 a       779     0    39     1    19
 -1.4089050544981657E-01 a       780     0    39     1    20
 -7.9088224704452550E-02 a       781     0    40     1     1
 -2.6209530287362580E-02 a       782     0    40     1     2
  4.8740151346631462E-02 a       783     0    40     1     3
  5.2036228746995414E-02 a       784     0    40     1     4
  1.6465462020138676E-02 a       785     0    40     1     5
 -1.9441881191759350E-01 a       786     0    40     1     6
 -6.7758801272280469E-02 a       787     0    40     1     7
 -1.2538906517291643E-01 a       788     0    40     1     8
 -1.7936126340770123E-01 a       789     0    40     1     9
  5.0015302287768758E-02 a       790     0    40     1    10
 -1.5970883360017607E-01 a       791     0    40     1    11
  1.6936312938073153E-01 a       792     0    40     1    12
  1.6377974560089870E-01 a       793     0    40     1    13
 -8.5119946079531376E-03 a       794     0    40     1    14
  1.1331178276010424E-01 a       795     0    40     1    15
  7.7426587347924763E-02 a       796     0    40     1    16
 -3.7307644492921579E-02 a       797     0    40     1    17
 -1.8972837449514823E-01 a       798     0    40     1    18
 -1.7751645882225561E-01 a       799     0    40     1    19
 -1.9740687386472189E-01 a       800     0    40     1    20
 -1.8264433517796519E-01 a       801     0    41     1     1
  4.8663455570207632E-02 a       802     0    41     1     2
 -3.3775080526335516E-02 a       803     0    41     1     3
  9.7965862989601110E-02 a       804     0    41     1     4
  1.2742182627899948E-01 a       805     0    41     1     5
  1.6041142579003889E-01 a       806     0    41     1     6
 -1.6990352647743345E-02 a       807     0    41     1     7
 -1.9531612539074036E-01 a       808     0    41     1     8
 -5.9378634919062083E-02 a       809     0    41     1     9
  1.6638992403905556E-01 a       810     0    41     1    10
 -5.5280843110000796E-02 a       811     0    41     1    11
  1.2400100139638415E-01 a       812     0    41     1    12
 -8.5579066224585262E-02 a       813     0    41     1    13
  7.1178472430419193E-02 a       814     0    41     1    14
 -1.9526980710635411E-01 a       815     0    41     1    15
 -7.4036056892299112E-02 a       816     0    41     1    16
 -1.2704231134632316E-01 a       817     0    41     1    17
 -9.1664130336890220E-02 a       818     0    41     1    18
 -8.5210123349008134E-03 a       819     0    41     1    19
 -1.2969497481988082E-01 a       820     0    41     1    20
 -6.7561573505142677E-02 a       821     0    42     1     1
 -1.6496284012990864E-01 a       822     0    42     1     2
  5.8232078411178771E-02 a       823     0    42     1     3
 -1.0736692624647276E-02 a       824     0    42     1     4
  3.3006536980247879E-02 a       825     0    42     1     5
 -1.2350045900768689E-01 a       826     0    42     1     6
 -1.6018017790306499E-01 a       827     0    42     1     7
  1.6397285162623715E-01 a       828     0    42     1     8
 -1.0059242137807067E-01 a       829     0    42     1     9
 -5.6084802661692655E-02 a       830     0    42     1    10
 -1.9419624154460471E-01 a       831     0    42     1    11
  2.1942078146833949E-01 a       832     0    42     1    12
 -4.5060013934733509E-02 a       833     0    42     1    13
  4.1230658954956596E-02 a       834     0    42     1    14
 -1.3509015983181755E-01 a       835     0    42     1    15
  9.6790483348852041E-02 a       836     0    42     1    16
  2.6675950968538098E-01 a       837     0    42     1    17
  2.5363644591870689E-02 a       838     0    42     1    18
 -1.3310928858712934E-01 a       839     0    42     1    19
  1.5798670584778579E-01 a       840     0    42     1    20
 -4.5933881321995086E-02 a       841     0    43     1     1
 -2.7072639302818908E-02 a       842     0    43     1     2
 -1.3683754430666215E-01 a       843     0    43     1     3
  2.1471043886938830E-02 a       844     0    43     1     4
 -4.2354960615267931E-02 a       845     0    43     1     5
 -6.4408694608316969E-02 a       846     0    43     1     6
 -5.3515164881227616E-02 a       847     0    43     1     7
  7.9768467551493694E-03 a       848     0    43     1     8
 -3.8760147017123908E-02 a       849     0    43     1     9
  1.3181415366672500E-01 a       850     0    43     1    10
  2.6693913713215344E-02 a       851     0    43     1    11
 -2.0494782763568486E-01 a       852     0    43     1    12
  5.2623926154396705E-02 a       853     0    43     1    13
  9.4259237225092357E-02 a       854     0    43     1    14
 -1.8867726871471296E-01 a       855     0    43     1    15
  1.0883448248755244E-01 a       856     0    43     1    16
  1.1427759308624620E-01 a       857     0    43     1    17
 -5.1338320371081096E-02 a       858     0    43     1    18
 -2.0050448413498467E-01 a       859     0    43     1    19
  7.3184807184140652E-02 a       860     0    43     1    20
 -2.7643690413295685E-01 a       861     0    44     1     1
  1.0581532128520225E-01 a       862     0    44     1     2
 -6.7892102192432482E-02 a       863     0    44     1     3
  1.0083494575483884E-01 a       864     0    44     1     4
  3.4886357083413472E-01 a       865     0    44     1     5
 -9.3225660521873394E-02 a       866     0    44     1     6
  1.2730254866521085E-01 a       867     0    44     1     7
  8.1609641697126078E-04 a       868     0    44     1     8
  1.1628752344897722E-01 a       869     0    44     1     9
 -2.0099454163253684E-02 a       870     0    44     1    10
 -2.0733761777473986E-01 a       871     0    44     1    11
 -1.2579154817016702E-01 a       872     0    44     1    12
  8.7490834698249198E-03 a       873     0    44     1    13
 -1.8936087798673412E-01 a       874     0    44     1    14
  1.0593091511893737E-01 a       875     0    44     1    15
  1.0929438284556775E-01 a       876     0    44     1    16
 -1.9411766273374134E-01 a       877     0    44     1    17
  8.1671982166180254E-02 a       878     0    44     1    18
 -1.6162954743232116E-01 a       879     0    44     1    19
 -1.7521059615115214E-01 a       880     0    44     1    20
 -8.6797779278391862E-01 a       881     0    45     1     1
  7.7501294208712257E-01 a       882     0    45     1     2
 -6.5987231386240200E-02 a       883     0    45     1     3
 -3.6347222716733674E-01 a       884     0    45     1     4
  1.5791088844344632E+00 a       885     0    45     1     5
  3.1568382378209074E-02 a       886     0    45     1     6
  3.0222575338732949E-01 a       887     0    45     1     7
  3.4257754991422340E-01 a       888     0    45     1     8
  6.8706868235005736E-01 a       889     0    45     1     9
  1.1060172814164937E+00 a       890     0    45     1    10
 -2.1292858807325377E-01 a       891     0    45     1    11
  9.3038007491115432E-02 a       892     0    45     1    12
 -6.8282873474183492E-01 a       893     0    45     1    13
  5.8489882924727024E-02 a       894     0    45     1    14
  3.2267086499937658E-01 a       895     0    45     1    15
  4.4657247311948334E-01 a       896     0    45     1    16
  2.9422081068463191E-01 a       897     0    45     1    17
  1.8006600644108289E-01 a       898     0    45     1    18
 -9.2878703885522329E-01 a       899     0    45     1    19
 -3.6362496162525820E-01 a       900     0    45     1    20
  1.3876391372982532E-02 a       901     0    46     1     1
  2.2151362744211939E-01 a       902     0    46     1     2
  5.9553173109667200E-02 a       903     0    46     1     3
 -2.7495708538301417E-01 a       904     0    46     1     4
  1.7475676487410491E-01 a       905     0    46     1     5
  5.3113806834535614E-02 a       906     0    46     1     6
  1.3097985019063969E-02 a       907     0    46     1     7
 -1.3775807962067660E-01 a       908     0    46     1     8
  2.6204628318294282E-01 a       909     0    46     1     9
  1.6449701414209511E-01 a       910     0    46     1    10
  3.1315427859541153E-02 a       911     0    46     1    11
  1.8055386718404451E-01 a       912     0    46     1    12
 -2.1231068122111707E-01 a       913     0    46     1    13
 -1.2248411880441536E-01 a       914     0    46     1    14
  1.5817446075972744E-01 a       915     0    46     1    15
 -7.3819815648194176E-02 a       916     0    46     1    16
 -8.2477868478199726E-02 a       917     0    46     1    17
  3.3667076895702211E-02 a       918     0    46     1    18
  1.8282562214025373E-02 a       919     0    46     1    19
 -7.7083236819702472E-02 a       920     0    46     1    20
  1.7240849373746139E-01 a       921     0    47     1     1
  1.6146562223980393E-02 a       922     0    47     1     2
  1.9853229633023370E-01 a       923     0    47     1     3
  2.0988934925948327E-01 a       924     0    47     1     4
 -7.8622289050103517E-02 a       925     0    47     1     5
 -2.2568025924684040E-01 a       926     0    47     1     6
  1.6787779745011716E-01 a       927     0    47     1     7
 -1.8238144530876380E-01 a       928     0    47     1     8
 -1.3827657920917000E-01 a       929     0    47     1     9
 -1.5141319556423094E-01 a       930     0    47     1    10
 -1.4035727135786663E-01 a       931     0    47     1    11
  1.6380762367678448E-01 a       932     0    47     1    12
  6.9024326188434348E-02 a       933     0    47     1    13
 -1.0299711304764562E-01 a       934     0    47     1    14
  1.6240409749220537E-02 a       935     0    47     1    15
  7.8700696570834838E-02 a       936     0    47     1    16
 -1.1049417540066585E-01 a       937     0    47     1    17
 -7.1688787916231192E-02 a       938     0    47     1    18
 -1.8752597605148674E-01 a       939     0    47     1    19
  4.7751750451301332E-02 a       940     0    47     1    20
  1.5727087782229129E-01 a       941     0    48     1     1
 -1.0112299481452434E-01 a       942     0    48     1     2
 -1.6977014276723085E-01 a       943     0    48     1     3
  7.4265656374891506E-02 a       944     0    48     1     4
  1.2345235897652704E-01 a       945     0    48     1     5
  1.8050361287611255E-01 a       946     0    48     1     6
  1.4038284749230634E-01 a       947     0    48     1     7
 -4.7717683105545717E-03 a       948     0    48     1     8
 -5.9121492935754930E-02 a       949     0    48     1     9
 -2.4218152639623920E-02 a       950     0    48     1    10
  1.2697329550564481E-02 a       951     0    48     1    11
  6.9780486647402384E-02 a       952     0    48     1    12
 -1.7399973676351860E-01 a       953     0    48     1    13
 -2.0402499200009372E-01 a       954     0    48     1    14
 -9.7526252972103197E-02 a       955     0    48     1    15
 -1.4181007373189625E-01 a       956     0    48     1    16
  4.0728512715428163E-02 a       957     0    48     1    17
  2.8786346540168543E-02 a       958     0    48     1    18
 -9.6189641086144154E-02 a       959     0    48     1    19
  1.5026245306640309E-02 a       960     0    48     1    20
  5.1790582795435143E-02 a       961     0    49     1     1
  1.1025207539707944E-01 a       962     0    49     1     2
  1.8960332030009466E-01 a       963     0    49     1     3
  1.3320689602166860E-01 a       964     0    49     1     4
 -2.3844493804680372E-02 a       965     0    49     1     5
  7.7591449909700363E-02 a       966     0    49     1     6
 -6.1471984871529287E-03 a       967     0    49     1     7
 -1.6478267334569632E-01 a       968     0    49     1     8
 -1.9127609250713604E-01 a       969     0    49     1     9
  1.1955354927050933E-01 a       970     0    49     1    10
 -1.6626846653625879E-01 a       971     0    49     1    11
 -7.6705422898044301E-02 a       972     0    49     1    12
 -2.0617700543807779E-01 a       973     0    49     1    13
  1.3771974745814047E-01 a       974     0    49     1    14
 -1.0995453050417832E-01 a       975     0    49     1    15
 -1.7379223430807106E-01 a       976     0    49     1    16
  2.6733921785385062E-01 a       977     0    49     1    17
 -6.9456793190414756E-02 a       978     0    49     1    18
  1.8908184181213505E-01 a       979     0    49     1    19
  5.2607443706092001E-02 a       980     0    49     1    20
  9.0615413702620412E-02 a       981     0    50     1     1
 -1.4572391661739736E-01 a       982     0    50     1     2
  1.4458540270878245E-01 a       983     0    50     1     3
 -8.2795840439503846E-02 a       984     0    50     1     4
 -7.2934208138946563E-02 a       985     0    50     1     5
 -1.9085219928197233E-01 a       986     0    50     1     6
 -1.5499625009942974E-01 a       987     0    50     1     7
 -6.0248206569555297E-02 a       988     0    50     1     8
  7.1734302450582363E-02 a       989     0    50     1     9
 -1.2929094434516775E-01 a       990     0    50     1    10
  5.6052271697687089E-02 a       991     0    50     1    11
 -1.2844213482170663E-01 a       992     0    50     1    12
  2.1266081000039697E-01 a       993     0    50     1    13
  8.5507889923407979E-02 a       994     0    50     1    14
 -7.5000928386547538E-02 a       995     0    50     1    15
 -1.7642829133978613E-01 a       996     0    50     1    16
  1.3229645682614080E-01 a       997     0    50     1    17
 -9.5543762302976981E-02 a       998     0    50     1    18
 -1.2945490179112021E-01 a       999     0    50     1    19
  1.6042487950420944E-01 a      1000     0    50     1    20
 -2.8308948743097639E-01 a      1001     0    51     1     1
  6.6077473566645384E-01 a      1002     0    51     1     2
  2.3759791975463568E-01 a      1003     0    51     1     3
 -4.9731235034733640E-01 a      1004     0    51     1     4
  8.8757930052010992E-01 a      1005     0    51     1     5
 -5.1156651321358444E-02 a      1006     0    51     1     6
  3.3005210660328460E-01 a      1007     0    51     1     7
  1.6658250859174514E-01 a      1008     0    51     1     8
  2.7808836040628787E-01 a      1009     0    51     1     9
  7.3563961403485367E-01 a      1010     0    51     1    10
 -9.2617190095506452E-02 a      1011     0    51     1    11
 -9.4455665154485335E-01 a      1012     0    51     1    12
  1.8588901787189052E-01 a      1013     0    51     1    13
 -1.5054656177944039E-02 a      1014     0    51     1    14
  9.4977230393349543E-02 a      1015     0    51     1    15
  3.1033480089024479E-01 a      1016     0    51     1    16
  9.2275075164192824E-02 a      1017     0    51     1    17
  1.6548790057362328E-01 a      1018     0    51     1    18
 -6.2659824840824940E-01 a      1019     0    51     1    19
 -4.1994306235625450E-01 a      1020     0    51     1    20
 -1.7535739369695919E-01 a      1021     0    52     1     1
 -2.8976319824330063E-02 a      1022     0    52     1     2
 -7.9852180608499357E-02 a      1023     0    52     1     3
  1.4219155423681751E-01 a      1024     0    52     1     4
 -9.6685394536918809E-02 a      1025     0    52     1     5
  9.8634146956207688E-02 a      1026     0    52     1     6
 -7.7357919215790882E-02 a      1027     0    52     1     7
  7.2262782075224560E-02 a      1028     0    52     1     8
  1.4206979179381699E-01 a      1029     0    52     1     9
  2.0945618836389868E-01 a      1030     0    52     1    10
  7.0556723080665004E-02 a      1031     0    52     1    11
  3.5131226321545493E-02 a      1032     0    52     1    12
 -1.5768052746323130E-01 a      1033     0    52     1    13
  1.4973856916254641E-01 a      1034     0    52     1    14
 -1.7814061172740081E-01 a      1035     0    52     1    15
 -8.1410228996978404E-02 a      1036     0    52     1    16
  5.2164189194463598E-02 a      1037     0    52     1    17
  8.1531699753969802E-02 a      1038     0    52     1    18
 -6.6915176495089060E-02 a      1039     0    52     1    19
  1.7533152956919090E-01 a      1040     0    52     1    20
 -6.7029979155287814E-02 a      1041     0    53     1     1
  5.5822928297916623E-02 a      1042     0    53     1     2
  2.0618086263100094E-01 a      1043     0    53     1     3
  1.9667639109713911E-01 a      1044     0    53     1     4
  1.7415611755977559E-01 a      1045     0    53     1     5
 -1.3570919776971282E-01 a      1046     0    53     1     6
 -9.5440101453231216E-02 a      1047     0    53     1     7
 -1.8586597616624309E-01 a      1048     0    53     1     8
  1.7056069827701131E-01 a      1049     0    53     1     9
 -5.6461461430787292E-02 a      1050     0    53     1    10
 -1.0767556662283170E-01 a      1051     0    53     1    11
 -2.5381749531764380E-01 a      1052     0    53     1    12
 -1.9090906657438395E-01 a      1053     0    53     1    13
 -7.7147273507909384E-02 a      1054     0    53     1    14
 -1.2137923200070584E-01 a      1055     0    53     1    15
  1.5464650957357196E-01 a      1056     0    53     1    16
 -8.3722949312911410E-02 a      1057     0    53     1    17
 -2.9772096723363374E-02 a      1058     0    53     1    18
 -7.8425368732815637E-02 a      1059     0    53     1    19
  2.8762208653316433E-02 a      1060     0    53     1    20
  5.7533942032430077E-02 a      1061     0    54     1     1
  1.4716234821435667E-01 a      1062     0    54     1     2
 -1.2282008658609538E-01 a      1063     0    54     1     3
  1.3966836296550475E-01 a      1064     0    54     1     4
 -1.5460134897886749E-01 a      1065     0    54     1     5
  4.3865372627001603E-02 a      1066     0    54     1     6
 -3.5478848378596227E-03 a      1067     0    54     1     7
  4.9744432895654528E-02 a      1068     0    54     1     8
 -4.3136328652783801E-02 a      1069     0    54     1     9
 -9.0906281965097452E-02 a      1070     0    54     1    10
 -1.6470649918808480E-01 a      1071     0    54     1    11
  6.0544754780702190E-02 a      1072     0    54     1    12
 -8.4759696435113552E-02 a      1073     0    54     1    13
 -1.4294769565606372E-01 a      1074     0    54     1    14
  7.9818856363954097E-02 a      1075     0    54     1    15
  7.8222881327639368E-02 a      1076     0    54     1    16
  2.9234595388257056E-03 a      1077     0    54     1    17
 -1.7718097547885861E-01 a      1078     0    54     1    18
  4.6096500775745591E-02 a      1079     0    54     1    19
 -1.2972762545826841E-01 a      1080     0    54     1    20
 -2.6667325007209544E-02 a      1081     0    55     1     1
 -3.6169418930406164E-02 a      1082     0    55     1     2
  1.9440633637659363E-01 a      1083     0    55     1     3
  1.3188979731501527E-01 a      1084     0    55     1     4
  2.1231695102925349E-01 a      1085     0    55     1     5
 -1.5452752612280388E-01 a      1086     0    55     1     6
  1.8369986387562401E-01 a      1087     0    55     1     7
 -8.9104465703647065E-02 a      1088     0    55     1     8
 -1.1210947271748883E-01 a      1089     0    55     1     9
 -6.3854785129927871E-02 a      1090     0    55     1    10
 -1.1331090072871063E-01 a      1091     0    55     1    11
 -3.5766731001345774E-02 a      1092     0    55     1    12
  2.1300603401948845E-01 a      1093     0    55     1    13
  1.2269295237391212E-01 a      1094     0    55     1    14
  8.2498787866908466E-02 a      1095     0    55     1    15
  9.7440125932171023E-02 a      1096     0    55     1    16
  5.3318142733700412E-02 a      1097     0    55     1    17
  5.5548305893525593E-02 a      1098     0    55     1    18
  1.2954047044256406E-02 a      1099     0    55     1    19
  1.7772432531271091E-02 a      1100     0    55     1    20
  1.5373976823326824E-02 a      1101     0    56     1     1
 -7.6440921078721538E-02 a      1102     0    56     1     2
 -4.1111164343818037E-03 a      1103     0    56     1     3
 -1.2640388717077020E-01 a      1104     0    56     1     4
 -4.9600466099418712E-02 a      1105     0    56     1     5
  1.1874463555790582E-02 a      1106     0    56     1     6
 -4.8801377259020069E-02 a      1107     0    56     1     7
 -1.5114374791208138E-01 a      1108     0    56     1     8
  3.3715853508256774E-02 a      1109     0    56     1     9
  1.3600159051789637E-01 a      1110     0    56     1    10
 -1.7260795385223840E-01 a      1111     0    56     1    11
 -3.7806431460740048E-01 a      1112     0    56     1    12
  1.8600880996317681E-01 a      1113     0    56     1    13
  1.4538653631319984E-01 a      1114     0    56     1    14
  2.2448513271604284E-01 a      1115     0    56     1    15
  6.6678514643163239E-02 a      1116     0    56     1    16
 -7.4154098176361760E-02 a      1117     0    56     1    17
 -2.2214696731356232E-01 a      1118     0    56     1    18
 -1.3914295655896952E-01 a      1119     0    56     1    19
 -1.3463581391029505E-01 a      1120     0    56     1    20
 -5.8419239270983048E-01 a      1121     0    57     1     1
  8.7928252338394819E-01 a      1122     0    57     1     2
  7.2286738480382114E-03 a      1123     0    57     1     3
 -2.3330600183757488E-01 a      1124     0    57     1     4
  1.3092263888181426E+00 a      1125     0    57     1     5
  3.8129292183937680E-01 a      1126     0    57     1     6
  1.5721316533314200E-01 a      1127     0    57     1     7
  8.3506224145409064E-02 a      1128     0    57     1     8
  5.7553616438380928E-01 a      1129     0    57     1     9
  9.7513362118580471E-01 a      1130     0    57     1    10
 -3.0235857840580654E-01 a      1131     0    57     1    11
  1.1571599215754864E-01 a      1132     0    57     1    12
 -7.4779622336052165E-01 a      1133     0    57     1    13
  3.0285179553067757E-02 a      1134     0    57     1    14
  2.9164869092883389E-01 a      1135     0    57     1    15
  3.2463896728890457E-01 a      1136     0    57     1    16
  8.6492564084337878E-02 a      1137     0    57     1    17
  3.4123831521186193E-01 a      1138     0    57     1    18
 -6.2396127793518008E-01 a      1139     0    57     1    19
 -5.0116236005790238E-01 a      1140     0    57     1    20
  9.6427253295288520E-02 a      1141     0    58     1     1
  3.4026963858505559E-02 a      1142     0    58     1     2
 -2.5528101790158475E-01 a      1143     0    58     1     3
  1.2356607364312995E-01 a      1144     0    58     1     4
  2.8335790626059215E-01 a      1145     0    58     1     5
  5.1678297698582516E-02 a      1146     0    58     1     6
 -1.3348817000722624E-01 a      1147     0    58     1     7
  1.7390022321387955E-01 a      1148     0    58     1     8
  1.6148273948581174E-01 a      1149     0    58     1     9
  2.4575199565478353E-01 a      1150     0    58     1    10
  1.0679389163567692E-01 a      1151     0    58     1    11
  1.6678886179136468E-01 a      1152     0    58     1    12
 -8.5755901582712568E-02 a      1153     0    58     1    13
 -7.5608304860140405E-02 a      1154     0    58     1    14
 -1.3402208731565407E-01 a      1155     0    58     1    15
 -1.2254626421377503E-01 a      1156     0    58     1    16
 -1.2131853085918323E-01 a      1157     0    58     1    17
 -8.0824534163982151E-02 a      1158     0    58     1    18
 -2.7267297947266478E-01 a      1159     0    58     1    19
 -1.5745131819184469E-01 a      1160     0    58     1    20
 -5.0509816176370403E-02 a      1161     0    59     1     1
  4.5227572720407776E-02 a      1162     0    59     1     2
 -1.2533226509532830E-01 a      1163     0    59     1     3
  5.4628856983594863E-03 a      1164     0    59     1     4
  5.2038850832164522E-02 a      1165     0    59     1     5
 -6.4588435555340010E-02 a      1166     0    59     1     6
 -2.0643715452252476E-01 a      1167     0    59     1     7
  5.2180324444418523E-02 a      1168     0    59     1     8
 -5.4269396577068502E-02 a      1169     0    59     1     9
  1.6477186154416079E-01 a      1170     0    59     1    10
 -1.5503993322497198E-01 a      1171     0    59     1    11
 -1.9512566930062081E-01 a      1172     0    59     1    12
  2.1062758487805713E-02 a      1173     0    59     1    13
 -5.5687307161551146E-02 a      1174     0    59     1    14
  9.3432805720971984E-02 a      1175     0    59     1    15
  2.0825253772613653E-01 a      1176     0    59     1    16
  1.6222583394009649E-01 a      1177     0    59     1    17
 -1.0301752547299604E-01 a      1178     0    59     1    18
  2.3356701550168418E-02 a      1179     0    59     1    19
 -1.9425529987988735E-01 a      1180     0    59     1    20
 -1.9403232557381345E-01 a      1181     0    60     1     1
  2.5402102039712028E-02 a      1182     0    60     1     2
 -7.3650069345276792E-02 a      1183     0    60     1     3
 -1.4441665008781401E-01 a      1184     0    60     1     4
 -2.1165528732916805E-01 a      1185     0    60     1     5
  5.9031113303072077E-02 a      1186     0    60     1     6
  2.0213227574499709E-01 a      1187     0    60     1     7
 -1.6322632985320336E-02 a      1188     0    60     1     8
  1.1027470118255703E-01 a      1189     0    60     1     9
 -1.4601861390633275E-01 a      1190     0    60     1    10
 -1.8216787917741140E-01 a      1191     0    60     1    11
  1.8937160294072841E-01 a      1192     0    60     1    12
 -7.7289535244962251E-02 a      1193     0    60     1    13
 -1.1704401011269591E-02 a      1194     0    60     1    14
 -1.6750389229090551E-01 a      1195     0    60     1    15
  1.6531390740788196E-01 a      1196     0    60     1    16
  9.7950228512755602E-02 a      1197     0    60     1    17
 -1.2342146846338737E-02 a      1198     0    60     1    18
 -1.4497523509472801E-02 a      1199     0    60     1    19
  2.2296516461456681E-02 a      1200     0    60     1    20
  2.5881679734673316E-03 a      1201     0    61     1     1
 -8.0200061390285821E-02 a      1202     0    61     1     2
  2.6890945933794125E-02 a      1203     0    61     1     3
  6.7651883142559571E-02 a      1204     0    61     1     4
  4.0260799770167936E-02 a      1205     0    61     1     5
  2.5177220764824726E-01 a      1206     0    61     1     6
  9.6737580607986998E-02 a      1207     0    61     1     7
 -1.5806013933860275E-01 a      1208     0    61     1     8
  8.3596003098736327E-02 a      1209     0    61     1     9
 -7.7063197037698608E-02 a      1210     0    61     1    10
  2.8996061985958457E-02 a      1211     0    61     1    11
  7.9503886500151125E-02 a      1212     0    61     1    12
 -2.3037220520639703E-01 a      1213     0    61     1    13
 -1.6240770395342122E-01 a      1214     0    61     1    14
 -1.1003869678524986E-01 a      1215     0    61     1    15
 -1.8723190738922174E-01 a      1216     0    61     1    16
  3.3026927689706193E-01 a      1217     0    61     1    17
  7.4530182605304751E-02 a      1218     0    61     1    18
  9.6335914337567760E-02 a      1219     0    61     1    19
  3.7358378271797429E-02 a      1220     0    61     1    20
 -1.2770341158539852E-01 a      1221     0    62     1     1
 -9.9445309708288826E-02 a      1222     0    62     1     2
 -5.9085374102393257E-02 a      1223     0    62     1     3
  1.7366045512797748E-01 a      1224     0    62     1     4
 -3.4425385347273997E-02 a      1225     0    62     1     5
 -1.4032826441999621E-01 a      1226     0    62     1     6
  1.4417684546235913E-03 a      1227     0    62     1     7
 -1.5317380979008205E-01 a      1228     0    62     1     8
 -4.4713951224459987E-02 a      1229     0    62     1     9
  1.7097304642470951E-01 a      1230     0    62     1    10
 -1.8215330080119191E-01 a      1231     0    62     1    11
  1.7767291039098884E-01 a      1232     0    62     1    12
  4.6784090355128184E-02 a      1233     0    62     1    13
 -1.9946262478636401E-01 a      1234     0    62     1    14
  7.4793524036057338E-02 a      1235     0    62     1    15
  7.7499030437328975E-02 a      1236     0    62     1    16
  6.0285220774795902E-03 a      1237     0    62     1    17
 -1.9863334179565920E-01 a      1238     0    62     1    18
 -1.8310353614881697E-01 a      1239     0    62     1    19
 -2.2712476502956831E-02 a      1240     0    62     1    20
 -3.3255969037988975E-01 a      1241     0    63     1     1
  3.1345944284185212E-01 a      1242     0    63     1     2
  1.5606810417288067E-01 a      1243     0    63     1     3
 -2.4522518880320263E-01 a      1244     0    63     1     4
  7.6366641948916514E-01 a      1245     0    63     1     5
 -1.0258450687727749E-02 a      1246     0    63     1     6
  4.6302290021416519E-03 a      1247     0    63     1     7
  2.7250029737988279E-01 a      1248     0    63     1     8
  1.9852935523650081E-01 a      1249     0    63     1     9
  7.5699391652857895E-01 a      1250     0    63     1    10
 -2.6695043581614758E-01 a      1251     0    63     1    11
 -6.1539306424229623E-01 a      1252     0    63     1    12
  2.2631861510993276E-01 a      1253     0    63     1    13
 -5.8203249587591384E-02 a      1254     0    63     1    14
  3.3902402723525883E-02 a      1255     0    63     1    15
  2.4995579402791079E-01 a      1256     0    63     1    16
  4.1743131743744660E-01 a      1257     0    63     1    17
  3.7055977433212907E-02 a      1258     0    63     1    18
 -2.3568903376842620E-01 a      1259     0    63     1    19
 -5.0133500602374048E-01 a      1260     0    63     1    20
 -2.0110995745072077E-01 a      1261     0    64     1     1
  2.0675263944212569E-02 a      1262     0    64     1     2
  1.8149312800855220E-02 a      1263     0    64     1     3
 -6.9637430934490346E-02 a      1264     0    64     1     4
  2.4836029880339838E-01 a      1265     0    64     1     5
 -5.1337601300055567E-02 a      1266     0    64     1     6
  1.3854672308399377E-01 a      1267     0    64     1     7
 -8.0835541352499887E-02 a      1268     0    64     1     8
  6.6176033292825315E-02 a      1269     0    64     1     9
  1.9625324793635623E-01 a      1270     0    64     1    10
  1.8565810852427259E-01 a      1271     0    64     1    11
 -1.1910479043374740E-01 a      1272     0    64     1    12
 -1.3401396054022344E-01 a      1273     0    64     1    13
  2.1951249529468020E-01 a      1274     0    64     1    14
 -1.1408946151122296E-01 a      1275     0    64     1    15
  1.5243365752865615E-01 a      1276     0    64     1    16
  5.5696042300789964E-02 a      1277     0    64     1    17
  3.7509815869617560E-02 a      1278     0    64     1    18
 -1.7381439429473045E-01 a      1279     0    64     1    19
 -1.9349396099680988E-01 a      1280     0    64     1    20
  4.0828968114525972E-02 a      1281     0    65     1     1
 -1.1716084291598312E-01 a      1282     0    65     1     2
  6.9842401547904082E-02 a      1283     0    65     1     3
 -1.5706460269287854E-02 a      1284     0    65     1     4
  2.6033580987310043E-02 a      1285     0    65     1     5
 -1.3439663215051478E-01 a      1286     0    65     1     6
  5.2149843801240332E-02 a      1287     0    65     1     7
 -1.0491343386373214E-01 a      1288     0    65     1     8
  1.4179289732983316E-01 a      1289     0    65     1     9
  1.2914947228254520E-01 a      1290     0    65     1    10
 -1.4886696374553687E-01 a      1291     0    65     1    11
 -4.7676980265922722E-02 a      1292     0    65     1    12
 -3.6428155356140211E-02 a      1293     0    65     1    13
  5.8086364208565472E-02 a      1294     0    65     1    14
  4.6909514471916831E-02 a      1295     0    65     1    15
 -6.5478605825134095E-02 a      1296     0    65     1    16
  1.8243976660040094E-02 a      1297     0    65     1    17
  1.4910408118603061E-01 a      1298     0    65     1    18
  4.9890641563749717E-03 a      1299     0    65     1    19
 -6.7607041821755809E-02 a      1300     0    65     1    20
  5.1395684647961057E-02 a      1301     0    66     1     1
 -7.5067035490967396E-02 a      1302     0    66     1     2
  6.2433316452635931E-02 a      1303     0    66     1     3
 -1.3717738941535548E-01 a      1304     0    66     1     4
 -1.0900346881135720E-01 a      1305     0    66     1     5
 -2.0354595108806625E-01 a      1306     0    66     1     6
  7.4165474502791623E-02 a      1307     0    66     1     7
  9.3014231280995785E-02 a      1308     0    66     1     8
  3.5396840940448988E-02 a      1309     0    66     1     9
 -1.7997189693560714E-01 a      1310     0    66     1    10
 -2.1910717628778054E-01 a      1311     0    66     1    11
 -1.3449487859603387E-01 a      1312     0    66     1    12
  2.6760917644408161E-01 a      1313     0    66     1    13
 -1.9520140188794158E-01 a      1314     0    66     1    14
 -9.5410980000811777E-03 a      1315     0    66     1    15
 -9.8498631831448774E-02 a      1316     0    66     1    16
  1.4341303681068038E-01 a      1317     0    66     1    17
 -1.7449753724651626E-01 a      1318     0    66     1    18
 -1.0951304953949084E-01 a      1319     0    66     1    19
 -1.1057270780663321E-01 a      1320     0    66     1    20
  1.0613580760074250E-01 a      1321     0    67     1     1
 -8.1130703791167699E-02 a      1322     0    67     1     2
  2.3842555526841766E-01 a      1323     0    67     1     3
 -9.9090940896070789E-02 a      1324     0    67     1     4
  3.5467600794907760E-02 a      1325     0    67     1     5
  7.6363132797902633E-02 a      1326     0    67     1     6
 -1.9117732801599385E-01 a      1327     0    67     1     7
  5.8766952613642592E-02 a      1328     0    67     1     8
 -6.0039624969890903E-02 a      1329     0    67     1     9
 -7.6944606843725172E-03 a      1330     0    67     1    10
 -6.5548580971496579E-04 a      1331     0    67     1    11
 -1.1516576181965409E-01 a      1332     0    67     1    12
  2.8987578030944988E-01 a      1333     0    67     1    13
  3.3559930355976479E-02 a      1334     0    67     1    14
 -6.5644262766257344E-02 a      1335     0    67     1    15
 -2.3596391269141658E-02 a      1336     0    67     1    16
  3.4256602826152299E-01 a      1337     0    67     1    17
 -3.3227054478779205E-01 a      1338     0    67     1    18
  1.3735095776210424E-01 a      1339     0    67     1    19
  5.0926463875085402E-03 a      1340     0    67     1    20
 -1.3790087528971570E-01 a      1341     0    68     1     1
  1.4001594426950414E-01 a      1342     0    68     1     2
 -3.0807298202376387E-02 a      1343     0    68     1     3
 -8.7730688622277023E-02 a      1344     0    68     1     4
  2.3032722813632228E-01 a      1345     0    68     1     5
  6.4418872687778531E-02 a      1346     0    68     1     6
  6.8316731247794485E-02 a      1347     0    68     1     7
 -9.1921854239306613E-02 a      1348     0    68     1     8
 -7.4598896508726933E-02 a      1349     0    68     1     9
 -2.9090457923600418E-02 a      1350     0    68     1    10
  8.8493464363000335E-03 a      1351     0    68     1    11
 -3.2442000226365808E-01 a      1352     0    68     1    12
  3.0463114317759327E-01 a      1353     0    68     1    13
  5.3218282927497987E-02 a      1354     0    68     1    14
  7.7994457489622693E-02 a      1355     0    68     1    15
 -8.9587190354648724E-02 a      1356     0    68     1    16
 -1.8633239405743579E-01 a      1357     0    68     1    17
  1.1268422015477163E-01 a      1358     0    68     1    18
  5.6284606425762621E-02 a      1359     0    68     1    19
  3.0439164286972558E-02 a      1360     0    68     1    20
 -5.8799937134177327E-01 a      1361     0    69     1     1
  5.8045557926936775E-01 a      1362     0    69     1     2
  6.5465078460336321E-02 a      1363     0    69     1     3
 -5.2608520979583984E-01 a      1364     0    69     1     4
  1.2415476559836807E+00 a      1365     0    69     1     5
  2.0611913456925199E-01 a      1366     0    69     1     6
  3.6940549387634608E-01 a      1367     0    69     1     7
  1.0427891357253204E-01 a      1368     0    69     1     8
  3.9791977565536979E-01 a      1369     0    69     1     9
  7.0656064162889320E-01 a      1370     0    69     1    10
 -1.0731756274820463E-01 a      1371     0    69     1    11
  1.8652870837557459E-01 a      1372     0    69     1    12
 -7.3309166470181175E-01 a      1373     0    69     1    13
  4.0608214215706658E-02 a      1374     0    69     1    14
  3.1944695747639612E-01 a      1375     0    69     1    15
  2.8534256974340821E-01 a      1376     0    69     1    16
  3.2282251034111309E-01 a      1377     0    69     1    17
  1.1295756024358533E-01 a      1378     0    69     1    18
 -5.3229862682743367E-01 a      1379     0    69     1    19
 -2.7137871559813365E-01 a      1380     0    69     1    20
  3.9134780095761088E-02 a      1381     0    70     1     1
  7.7204465714494963E-02 a      1382     0    70     1     2
 -3.9868254396743109E-02 a      1383     0    70     1     3
 -1.5463940457492525E-01 a      1384     0    70     1     4
 -1.2833583621772783E-02 a      1385     0    70     1     5
  2.6120880717667858E-02 a      1386     0    70     1     6
 -1.3260655905521931E-01 a      1387     0    70     1     7
 -1.1099397821672335E-01 a      1388     0    70     1     8
  5.7209261899949279E-02 a      1389     0    70     1     9
  8.4104503934113076E-02 a      1390     0    70     1    10
 -1.0799618538913086E-01 a      1391     0    70     1    11
  5.9340996945826861E-02 a      1392     0    70     1    12
 -4.5657919971412643E-02 a      1393     0    70     1    13
  2.1997076012424258E-01 a      1394     0    70     1    14
 -6.6473749831977944E-02 a      1395     0    70     1    15
  7.9491526104666643E-02 a      1396     0    70     1    16
 -4.6937433243526047E-02 a      1397     0    70     1    17
 -1.1911823525154347E-01 a      1398     0    70     1    18
 -2.3117253380243680E-01 a      1399     0    70     1    19
  1.9279411226279661E-02 a      1400     0    70     1    20
  1.5686347664906602E-01 a      1401     0    71     1     1
  2.0637602746222553E-01 a      1402     0    71     1     2
 -6.8625519524338693E-02 a      1403     0    71     1     3
  6.4860302930531730E-02 a      1404     0    71     1     4
  7.4421746009421972E-03 a      1405     0    71     1     5
 -1.2015476897791651E-01 a      1406     0    71     1     6
  4.5727639402250268E-02 a      1407     0    71     1     7
 -6.9016604727757433E-02 a      1408     0    71     1     8
  1.9514899915002715E-01 a      1409     0    71     1     9
  1.1680647304000562E-01 a      1410     0    71     1    10
  1.2569907528771124E-01 a      1411     0    71     1    11
  8.5283693038628330E-02 a      1412     0    71     1    12
 -1.3863643895797331E-01 a      1413     0    71     1    13
 -1.8142364454536983E-01 a      1414     0    71     1    14
  1.5885756606983747E-01 a      1415     0    71     1    15
  1.1172626879210813E-01 a      1416     0    71     1    16
 -6.2241732492930170E-02 a      1417     0    71     1    17
  1.0941411442928940E-01 a      1418     0    71     1    18
 -1.5316833951513309E-01 a      1419     0    71     1    19
 -1.1465108136284402E-01 a      1420     0    71     1    20
  9.1298976393658110E-02 a      1421     0    72     1     1
  1.7503442539896202E-01 a      1422     0    72     1     2
  1.3749106217613336E-01 a      1423     0    72     1     3
 -1.9534040115278387E-01 a      1424     0    72     1     4
  1.5335233030506581E-01 a      1425     0    72     1     5
 -7.8900925062914531E-02 a      1426     0    72     1     6
 -3.8653908373842680E-02 a      1427     0    72     1     7
 -4.2196877841380875E-03 a      1428     0    72     1     8
  1.7749230820751108E-01 a      1429     0    72     1     9
 -1.5475046357117933E-02 a      1430     0    72     1    10
 -1.2498254116807743E-01 a      1431     0    72     1    11
  1.2061316781621208E-01 a      1432     0    72     1    12
  1.4411518895518033E-01 a      1433     0    72     1    13
  1.4612029748463179E-01 a      1434     0    72     1    14
 -2.0716211618796629E-01 a      1435     0    72     1    15
 -1.9829857595517542E-01 a      1436     0    72     1    16
  3.0984085309213674E-02 a      1437     0    72     1    17
  3.6636169193812192E-02 a      1438     0    72     1    18
 -8.7834790240226036E-03 a      1439     0    72     1    19
  1.2975221334485126E-01 a      1440     0    72     1    20
 -1.3001942867121219E-01 a      1441     0    73     1     1
  4.0232317257313237E-02 a      1442     0    73     1     2
 -1.3211353232563358E-01 a      1443     0    73     1     3
 -5.4660713720615095E-02 a      1444     0    73     1     4
  1.7350888099738490E-01 a      1445     0    73     1     5
 -6.4047839005534221E-02 a      1446     0    73     1     6
 -1.9411442472407106E-01 a      1447     0    73     1     7
 -3.8131021685917192E-02 a      1448     0    73     1     8
  1.1504762062545577E-01 a      1449     0    73     1     9
  1.4804225334165544E-01 a      1450     0    73     1    10
  9.5048749419794062E-02 a      1451     0    73     1    11
  1.4058689096633398E-01 a      1452     0    73     1    12
  8.5235008393799938E-02 a      1453     0    73     1    13
 -1.6956869868810804E-02 a      1454     0    73     1    14
  1.5990877554408728E-01 a      1455     0    73     1    15
 -5.8904303646340236E-02 a      1456     0    73     1    16
  3.9643540244329527E-02 a      1457     0    73     1    17
  2.7417849070829181E-01 a      1458     0    73     1    18
  1.3989096369737572E-01 a      1459     0    73     1    19
 -7.4712083489938894E-02 a      1460     0    73     1    20
 -1.1965725745945618E-01 a      1461     0    74     1     1
 -1.3248556187947741E-01 a      1462     0    74     1     2
  1.8392186877806621E-01 a      1463     0    74     1     3
  2.9662712932631741E-03 a      1464     0    74     1     4
 -7.5835767835305407E-02 a      1465     0    74     1     5
  2.1898869457073389E-01 a      1466     0    74     1     6
  8.8798512840686933E-02 a      1467     0    74     1     7
  8.3483777788135885E-02 a      1468     0    74     1     8
  1.1100597807104982E-01 a      1469     0    74     1     9
  1.9999671130245864E-01 a      1470     0    74     1    10
 -1.2834397837456599E-01 a      1471     0    74     1    11
 -1.6119231151883195E-01 a      1472     0    74     1    12
  7.8261587923905432E-02 a      1473     0    74     1    13
  2.1825349352844481E-01 a      1474     0    74     1    14
 -3.2957755484749281E-02 a      1475     0    74     1    15
  9.2239806894416146E-02 a      1476     0    74     1    16
 -1.0191070829091869E-01 a      1477     0    74     1    17
 -1.9489298124443286E-01 a      1478     0    74     1    18
 -1.0164048784702565E-01 a      1479     0    74     1    19
 -6.1366360093937367E-03 a      1480     0    74     1    20
 -4.3543049172155096E-01 a      1481     0    75     1     1
  3.2219777398055982E-01 a      1482     0    75     1     2
  1.6430887968873978E-01 a      1483     0    75     1     3
 -2.3747577093412003E-01 a      1484     0    75     1     4
  7.0503569184785997E-01 a      1485     0    75     1     5
 -6.4903024611148413E-02 a      1486     0    75     1     6
  2.6657235174292371E-01 a      1487     0    75     1     7
  9.7042383736934024E-02 a      1488     0    75     1     8
  3.5235509606393023E-01 a      1489     0    75     1     9
  5.5671305238104751E-01 a      1490     0    75     1    10
 -1.8066992176280075E-01 a      1491     0    75     1    11
 -7.8129750876271964E-01 a      1492     0    75     1    12
  1.1256224719229944E-01 a      1493     0    75     1    13
 -1.0310290978863262E-01 a      1494     0    75     1    14
  1.8016017627550251E-01 a      1495     0    75     1    15
  2.0388251243018249E-01 a      1496     0    75     1    16
  4.3301798573871182E-02 a      1497     0    75     1    17
 -7.6148681697223247E-02 a      1498     0    75     1    18
 -4.2857765077245535E-01 a      1499     0    75     1    19
 -3.2974550789271745E-01 a      1500     0    75     1    20
 -2.2175207686248308E-01 a      1501     0    76     1     1
 -6.4477408148035140E-02 a      1502     0    76     1     2
  1.9555747041688723E-01 a      1503     0    76     1     3
 -2.1074109985144476E-01 a      1504     0    76     1     4
  9.5640268860789440E-02 a      1505     0    76     1     5
 -6.9237417664553297E-02 a      1506     0    76     1     6
  6.2909387288234683E-02 a      1507     0    76     1     7
  1.4463808603561704E-01 a      1508     0    76     1     8
 -7.5376553823208736E-02 a      1509     0    76     1     9
  9.0354671352139676E-02 a      1510     0    76     1    10
 -1.3771223978954120E-01 a      1511     0    76     1    11
  1.7822391583528799E-01 a      1512     0    76     1    12
 -1.9402991065449937E-01 a      1513     0    76     1    13
 -7.2417094398290527E-02 a      1514     0    76     1    14
  3.8269038285876314E-02 a      1515     0    76     1    15
  7.9554324188449266E-02 a      1516     0    76     1    16
  4.8037674264661129E-02 a      1517     0    76     1    17
  2.4571654043100917E-02 a      1518     0    76     1    18
 -7.2687162714289891E-02 a      1519     0    76     1    19
 -1.7691901319890255E-01 a      1520     0    76     1    20
  5.3426567825639544E-02 a      1521     0    77     1     1
 -9.2597621589622855E-02 a      1522     0    77     1     2
  1.5406284348928742E-01 a      1523     0    77     1     3
  1.6364340234551603E-01 a      1524     0    77     1     4
  1.6745625523427393E-01 a      1525     0    77     1     5
 -1.1912481901551712E-01 a      1526     0    77     1     6
 -1.5609370499803449E-01 a      1527     0    77     1     7
  3.3947351125843309E-02 a      1528     0    77     1     8
  8.8249442138222181E-02 a      1529     0    77     1     9
  2.9397831522121123E-02 a      1530     0    77     1    10
  4.0518310415847775E-02 a      1531     0    77     1    11
 -5.2915338769584014E-02 a      1532     0    77     1    12
  1.1072892446307135E-01 a      1533     0    77     1    13
  2.0426641536850210E-01 a      1534     0    77     1    14
  7.6859113978011342E-03 a      1535     0    77     1    15
 -9.8417119495097349E-02 a      1536     0    77     1    16
  9.8552325354323664E-02 a      1537     0    77     1    17
  2.0898491664531202E-01 a      1538     0    77     1    18
  1.3082506147238912E-01 a      1539     0    77     1    19
  1.2843731895532717E-01 a      1540     0    77     1    20
  1.3572590680574606E-01 a      1541     0    78     1     1
  1.5620537412053861E-01 a      1542     0    78     1     2
  2.0107721112637124E-02 a      1543     0    78     1     3
  1.0213348189404425E-01 a      1544     0    78     1     4
 -1.2220154396146442E-01 a      1545     0    78     1     5
 -2.2210254812980076E-01 a      1546     0    78     1     6
 -1.7224332150242352E-01 a      1547     0    78     1     7
 -9.3500691253420309E-03 a      1548     0    78     1     8
  5.5618628070549332E-03 a      1549     0    78     1     9
 -6.2253138597264959E-02 a      1550     0    78     1    10
  6.9087063719975500E-02 a      1551     0    78     1    11
 -1.4318292834601468E-01 a      1552     0    78     1    12
  2.2648302850720320E-01 a      1553     0    78     1    13
 -6.6741797617590873E-02 a      1554     0    78     1    14
  1.1978194388332615E-02 a      1555     0    78     1    15
 -2.7662252549518374E-02 a      1556     0    78     1    16
  7.2349732370387179E-02 a      1557     0    78     1    17
  3.4468864554974249E-02 a      1558     0    78     1    18
  5.8125324422098619E-02 a      1559     0    78     1    19
  7.4196208550221188E-02 a      1560     0    78     1    20
 -4.5818200221899863E-02 a      1561     0    79     1     1
 -1.4310683965574442E-01 a      1562     0    79     1     2
  2.3238112668517948E-02 a      1563     0    79     1     3
 -2.0540247900238609E-01 a      1564     0    79     1     4
 -1.6657068008590065E-01 a      1565     0    79     1     5
  4.2104514887659886E-02 a      1566     0    79     1     6
 -1.4701533186912413E-01 a      1567     0    79     1     7
  8.9689400885111084E-02 a      1568     0    79     1     8
  2.1563318228051181E-01 a      1569     0    79     1     9
  1.2675980224747210E-01 a      1570     0    79     1    10
 -5.7079116057181384E-02 a      1571     0    79     1    11
 -3.0865605640563865E-01 a      1572     0    79     1    12
  9.6518570614779212E-02 a      1573     0    79     1    13
  9.7371925964987449E-02 a      1574     0    79     1    14
  1.1471276407288412E-01 a      1575     0    79     1    15
  3.4951170850165456E-02 a      1576     0    79     1    16
  9.9734222968160660E-02 a      1577     0    79     1    17
  4.0791597350931630E-02 a      1578     0    79     1    18
 -1.9339001431973099E-01 a      1579     0    79     1    19
 -1.4629115434740309E-01 a      1580     0    79     1    20
  1.8172590596565164E-01 a      1581     0    80     1     1
  2.0804557759537765E-01 a      1582     0    80     1     2
 -6.6795721506759761E-02 a      1583     0    80     1     3
 -4.5082745898386990E-02 a      1584     0    80     1     4
 -1.0163797272144746E-01 a      1585     0    80     1     5
  2.1836596506055614E-02 a      1586     0    80     1     6
  1.0893922029906786E-01 a      1587     0    80     1     7
  1.6904289385365584E-01 a      1588     0    80     1     8
  4.2456212222371795E-02 a      1589     0    80     1     9
  1.5736023215448250E-01 a      1590     0    80     1    10
 -3.8867217879359935E-02 a      1591     0    80     1    11
 -2.6658262539121386E-01 a      1592     0    80     1    12
  2.4141114870045233E-01 a      1593     0    80     1    13
 -1.3270456075151946E-01 a      1594     0    80     1    14
  9.5128068829284929E-02 a      1595     0    80     1    15
 -1.9861721063065101E-02 a      1596     0    80     1    16
  3.8296814327462448E-03 a      1597     0    80     1    17
 -2.3216878377524057E-02 a      1598     0    80     1    18
  1.7550273888252693E-01 a      1599     0    80     1    19
  1.7883496103144542E-01 a      1600     0    80     1    20
 -2.3139758186675780E-01 a      1601     0    81     1     1
  5.8800373106573611E-01 a      1602     0    81     1     2
  1.4214715963928279E-01 a      1603     0    81     1     3
 -7.7827883381479529E-02 a      1604     0    81     1     4
  7.4125422816483777E-01 a      1605     0    81     1     5
  1.7153776906936649E-01 a      1606     0    81     1     6
  2.0464236303429995E-01 a      1607     0    81     1     7
  1.6696028372565208E-01 a      1608     0    81     1     8
  4.9564140337782780E-01 a      1609     0    81     1     9
  5.9973803257765734E-01 a      1610     0    81     1    10
 -1.7871856014396703E-01 a      1611     0    81     1    11
 -1.8521731862174801E-01 a      1612     0    81     1    12
 -2.3098893580174271E-01 a      1613     0    81     1    13
  3.0408172461111621E-01 a      1614     0    81     1    14
  8.5302930139907432E-02 a      1615     0    81     1    15
  6.9594931145333591E-02 a      1616     0    81     1    16
 -5.7140085542533260E-03 a      1617     0    81     1    17
 -1.5258768187006930E-02 a      1618     0    81     1    18
 -1.5940702300192225E-01 a      1619     0    81     1    19
 -8.6078468730395472E-02 a      1620     0    81     1    20
 -2.8370835174113165E-02 a      1621     0    82     1     1
 -1.3503899520492510E-01 a      1622     0    82     1     2
 -2.0455508406615513E-02 a      1623     0    82     1     3
