################################################################################
# Neural network connection values (weights and biases).
################################################################################
# Col  Name       Description
################################################################################
# 1    connection Neural network connection value.
# 2    t          Connection type (a = weight, b = bias).
# 3    index      Index enumerating weights.
# 4    l_s        Starting point layer (end point layer for biases).
# 5    n_s        Starting point neuron in starting layer (end point neuron for biases).
# 6    l_e        End point layer.
# 7    n_e        End point neuron in end layer.
################################################################################
#                      1 2         3     4     5     6     7
#             connection t     index   l_s   n_s   l_e   n_e
############################################################
 -2.3870258544783935E-02 a         1     0     1     1     1
  7.8273142374824897E-02 a         2     0     1     1     2
  1.3223821641753916E-01 a         3     0     1     1     3
 -6.2351181732636714E-02 a         4     0     1     1     4
  7.8796599935684594E-02 a         5     0     1     1     5
 -2.2761769723287764E-01 a         6     0     1     1     6
  7.7867525806912108E-01 a         7     0     1     1     7
  3.3739439488454974E-02 a         8     0     1     1     8
  7.5262672535657793E-01 a         9     0     1     1     9
 -2.4551835704406497E-01 a        10     0     1     1    10
  2.1405807639175792E-01 a        11     0     1     1    11
  1.7419282537236216E-01 a        12     0     1     1    12
  2.9626507239275363E-01 a        13     0     1     1    13
 -1.0870123889512904E+00 a        14     0     1     1    14
 -1.2533757517929370E-01 a        15     0     1     1    15
  1.7037207706132793E+00 a        16     0     1     1    16
 -1.6951547205694795E-01 a        17     0     1     1    17
 -2.8407040834926801E-03 a        18     0     1     1    18
 -1.2460203541392162E-02 a        19     0     1     1    19
 -1.7080017073232876E+00 a        20     0     1     1    20
  1.2969464070014650E-01 a        21     0     2     1     1
 -1.1458922488349403E-01 a        22     0     2     1     2
  2.0937066886941655E-01 a        23     0     2     1     3
 -1.0705606075482406E-01 a        24     0     2     1     4
 -6.3591735877737601E-02 a        25     0     2     1     5
  1.6656133563051245E-01 a        26     0     2     1     6
 -1.0575657395068848E-01 a        27     0     2     1     7
  8.7367572760992301E-02 a        28     0     2     1     8
 -9.1326112144641536E-02 a        29     0     2     1     9
 -1.2850197687842504E-01 a        30     0     2     1    10
  5.5567459136092422E-03 a        31     0     2     1    11
  1.4606262753928517E-01 a        32     0     2     1    12
  1.5122854709936123E-01 a        33     0     2     1    13
 -1.8337075773257025E-01 a        34     0     2     1    14
 -4.3493539695389632E-02 a        35     0     2     1    15
  7.4648347688303083E-04 a        36     0     2     1    16
  1.9034992436616568E-01 a        37     0     2     1    17
  1.6446242968867336E-01 a        38     0     2     1    18
 -7.6209829282399902E-02 a        39     0     2     1    19
  5.1293893865025683E-02 a        40     0     2     1    20
 -1.0082880243423095E-01 a        41     0     3     1     1
  1.3727491651465581E-01 a        42     0     3     1     2
  6.3596626265653822E-02 a        43     0     3     1     3
 -1.5409942176530270E-01 a        44     0     3     1     4
 -5.6050748648397992E-02 a        45     0     3     1     5
  2.1524108720440960E-01 a        46     0     3     1     6
 -6.6223258035797739E-01 a        47     0     3     1     7
 -1.2483261632952024E-01 a        48     0     3     1     8
  2.0827956872256415E-01 a        49     0     3     1     9
  7.5234912497122608E-01 a        50     0     3     1    10
  1.1980011390846336E-01 a        51     0     3     1    11
 -1.5845190098360196E-01 a        52     0     3     1    12
 -2.0860893860876834E-01 a        53     0     3     1    13
 -4.0220747408676338E-01 a        54     0     3     1    14
 -2.4091991018069009E-01 a        55     0     3     1    15
  8.2908674072362487E-01 a        56     0     3     1    16
  1.4442864532158678E-01 a        57     0     3     1    17
 -4.1155033996201421E-02 a        58     0     3     1    18
  1.1040492072225558E-01 a        59     0     3     1    19
  1.1918100214280730E-01 a        60     0     3     1    20
  1.8983209501385157E-02 a        61     0     4     1     1
  3.5892681600022937E-02 a        62     0     4     1     2
  4.1829819908906114E-02 a        63     0     4     1     3
  3.9691045437166617E-02 a        64     0     4     1     4
  1.7611672561136246E-01 a        65     0     4     1     5
  1.9061492192889667E-01 a        66     0     4     1     6
 -1.0626565681883142E-01 a        67     0     4     1     7
 -1.3448795775449351E-01 a        68     0     4     1     8
 -1.4779227699094913E-01 a        69     0     4     1     9
 -1.5873302627847977E-01 a        70     0     4     1    10
  1.8357878901732558E-01 a        71     0     4     1    11
 -7.2359493264333344E-02 a        72     0     4     1    12
  1.7487137317194834E-01 a        73     0     4     1    13
  1.7296562670259966E-01 a        74     0     4     1    14
 -1.3665466167118226E-01 a        75     0     4     1    15
 -1.0816137620674304E-01 a        76     0     4     1    16
  7.8988301412988252E-02 a        77     0     4     1    17
 -1.2576623696256917E-01 a        78     0     4     1    18
 -1.3910916133246340E-01 a        79     0     4     1    19
  2.6414892666014652E-02 a        80     0     4     1    20
  6.7101565450313527E-01 a        81     0     5     1     1
  3.0314399248432650E-01 a        82     0     5     1     2
  6.1455749571445106E-01 a        83     0     5     1     3
 -9.3164834022227472E-01 a        84     0     5     1     4
  4.0019890047802992E-01 a        85     0     5     1     5
  3.7426683423412549E-01 a        86     0     5     1     6
  6.9924781499982402E-01 a        87     0     5     1     7
  2.5513571446625144E-01 a        88     0     5     1     8
 -7.6180991072902926E-01 a        89     0     5     1     9
  3.9387144270042102E-01 a        90     0     5     1    10
  1.0718427705190872E+00 a        91     0     5     1    11
 -1.2166713754870451E+00 a        92     0     5     1    12
  7.0560399766106077E-02 a        93     0     5     1    13
  1.7939376499349799E-01 a        94     0     5     1    14
 -1.1001909350257724E+00 a        95     0     5     1    15
  2.1451711927438802E-01 a        96     0     5     1    16
  1.2186178999729138E+00 a        97     0     5     1    17
 -8.2245710127584881E-01 a        98     0     5     1    18
  5.2083563050481330E-01 a        99     0     5     1    19
  7.3386047435558688E-01 a       100     0     5     1    20
  1.5900632228420267E-01 a       101     0     6     1     1
  3.8120890997198370E-02 a       102     0     6     1     2
 -9.0934379568174364E-02 a       103     0     6     1     3
 -2.0213700477726404E-01 a       104     0     6     1     4
  1.3212691545956914E-01 a       105     0     6     1     5
  9.2364073596959750E-02 a       106     0     6     1     6
 -1.4484531813894155E-01 a       107     0     6     1     7
  2.5442254261636273E-02 a       108     0     6     1     8
 -2.0537919421438797E-01 a       109     0     6     1     9
  9.3104400948082117E-02 a       110     0     6     1    10
 -8.0522092807777668E-02 a       111     0     6     1    11
 -8.9148139448499614E-02 a       112     0     6     1    12
  1.3572957040686748E-01 a       113     0     6     1    13
 -1.7268536325525344E-01 a       114     0     6     1    14
 -6.6799197029471277E-02 a       115     0     6     1    15
  1.1270717429598795E-01 a       116     0     6     1    16
  2.0495127106474406E-01 a       117     0     6     1    17
  2.0874261566296570E-01 a       118     0     6     1    18
 -5.2027151812391911E-02 a       119     0     6     1    19
 -7.3043049259886195E-02 a       120     0     6     1    20
  1.1013948786461918E+00 a       121     0     7     1     1
  1.2919595609458459E+00 a       122     0     7     1     2
  1.7846801725402093E+00 a       123     0     7     1     3
 -1.9393750433236778E+00 a       124     0     7     1     4
  8.8638771142167938E-01 a       125     0     7     1     5
  1.1285167440910915E+00 a       126     0     7     1     6
  3.8976345423108155E-01 a       127     0     7     1     7
  9.2002555527461394E-01 a       128     0     7     1     8
 -3.8729676390434586E-01 a       129     0     7     1     9
 -5.5597056214341878E-01 a       130     0     7     1    10
  2.1139018253909190E+00 a       131     0     7     1    11
 -3.3482844538599790E+00 a       132     0     7     1    12
 -3.1614347587603603E-01 a       133     0     7     1    13
  2.7322890534834382E-01 a       134     0     7     1    14
 -2.9770778004051630E+00 a       135     0     7     1    15
  8.4825296349138435E-02 a       136     0     7     1    16
  3.1035505561740142E+00 a       137     0     7     1    17
 -2.5853967696704823E+00 a       138     0     7     1    18
  1.0022663200814721E+00 a       139     0     7     1    19
  1.8495226146950478E-01 a       140     0     7     1    20
 -1.2235736517669250E-02 a       141     0     8     1     1
  1.2118935993083113E-01 a       142     0     8     1     2
  1.5023534328128890E-01 a       143     0     8     1     3
  1.7417378900810454E-01 a       144     0     8     1     4
  6.8931502405892908E-02 a       145     0     8     1     5
 -4.5681041769372481E-02 a       146     0     8     1     6
  8.3971395048971664E-02 a       147     0     8     1     7
  3.7367079558893297E-02 a       148     0     8     1     8
  1.4274092625679832E-01 a       149     0     8     1     9
 -7.6298023580376410E-03 a       150     0     8     1    10
  2.0834378322138092E-01 a       151     0     8     1    11
  6.0418534961996395E-02 a       152     0     8     1    12
  5.5765925877985449E-02 a       153     0     8     1    13
 -7.3569368882720407E-02 a       154     0     8     1    14
  6.4013018183529780E-02 a       155     0     8     1    15
  2.1860880618111680E-01 a       156     0     8     1    16
 -2.0074035765164530E-01 a       157     0     8     1    17
  7.6274607658579380E-02 a       158     0     8     1    18
  8.8390384994503635E-02 a       159     0     8     1    19
 -3.7817404172900575E-02 a       160     0     8     1    20
  8.7874506610496272E-01 a       161     0     9     1     1
  1.0553040530481779E+00 a       162     0     9     1     2
  1.8872844257422339E+00 a       163     0     9     1     3
 -1.6767215150124324E+00 a       164     0     9     1     4
  1.1010500290350413E+00 a       165     0     9     1     5
  1.0397805360384158E+00 a       166     0     9     1     6
  4.1007119162719513E-01 a       167     0     9     1     7
  8.5489716480269085E-01 a       168     0     9     1     8
 -9.5773002843799460E-01 a       169     0     9     1     9
 -6.5657661257421140E-01 a       170     0     9     1    10
  2.1382104257072760E+00 a       171     0     9     1    11
 -2.8715087279091085E+00 a       172     0     9     1    12
 -5.3385617835707243E-02 a       173     0     9     1    13
  3.5923748031884156E-01 a       174     0     9     1    14
 -2.4305937307546790E+00 a       175     0     9     1    15
  1.3594545043229184E-01 a       176     0     9     1    16
  2.7213795766605191E+00 a       177     0     9     1    17
 -2.4456890326395544E+00 a       178     0     9     1    18
  9.5737967229338194E-01 a       179     0     9     1    19
  4.1551084019079731E-01 a       180     0     9     1    20
  1.9761357462161472E-01 a       181     0    10     1     1
  1.4902431458654655E-01 a       182     0    10     1     2
 -3.6441670025857062E-02 a       183     0    10     1     3
  5.8277474416303023E-02 a       184     0    10     1     4
 -6.4633363744359268E-02 a       185     0    10     1     5
  1.1079440396077307E-01 a       186     0    10     1     6
 -2.1401602209315945E-01 a       187     0    10     1     7
  1.6576334809030585E-01 a       188     0    10     1     8
 -8.0038794127824969E-02 a       189     0    10     1     9
  8.9390292184926404E-02 a       190     0    10     1    10
  1.6143262159659330E-01 a       191     0    10     1    11
 -2.3888027933357217E-01 a       192     0    10     1    12
  1.2194976184082888E-01 a       193     0    10     1    13
 -3.9267025141692641E-01 a       194     0    10     1    14
  3.4313850604379158E-02 a       195     0    10     1    15
  1.7810448816247021E-01 a       196     0    10     1    16
 -1.3904154141102665E-01 a       197     0    10     1    17
 -8.1799572116677391E-02 a       198     0    10     1    18
 -5.1562080457809092E-02 a       199     0    10     1    19
  2.0097165623789451E-01 a       200     0    10     1    20
  3.7067012324617832E-01 a       201     0    11     1     1
  5.1964746953254082E-01 a       202     0    11     1     2
  5.4990459791355217E-01 a       203     0    11     1     3
 -8.4949299302509096E-01 a       204     0    11     1     4
  1.9199884973768336E-01 a       205     0    11     1     5
  4.6729413967445371E-01 a       206     0    11     1     6
  4.5434415300649933E-01 a       207     0    11     1     7
  3.3750767947553878E-01 a       208     0    11     1     8
 -4.8981163611424799E-01 a       209     0    11     1     9
 -1.1358672876546374E-02 a       210     0    11     1    10
  6.2054642921482039E-01 a       211     0    11     1    11
 -1.2428052361244222E+00 a       212     0    11     1    12
 -1.4162060535274959E-01 a       213     0    11     1    13
  1.2369438271544198E-01 a       214     0    11     1    14
 -8.2437888732653597E-01 a       215     0    11     1    15
  1.3369205214361521E-01 a       216     0    11     1    16
  9.4165565417736585E-01 a       217     0    11     1    17
 -9.0300865731460900E-01 a       218     0    11     1    18
  5.1919437616509423E-01 a       219     0    11     1    19
  4.2727353955965125E-01 a       220     0    11     1    20
  2.8291336367879583E-01 a       221     0    12     1     1
  2.5751150285924873E-01 a       222     0    12     1     2
  2.8367551272714436E-01 a       223     0    12     1     3
 -5.1456438993138891E-02 a       224     0    12     1     4
  1.9996341830555273E-01 a       225     0    12     1     5
 -6.1641684635396959E-02 a       226     0    12     1     6
 -3.6673889206143789E-01 a       227     0    12     1     7
  2.2042014993780501E-01 a       228     0    12     1     8
 -4.7193597855841013E-02 a       229     0    12     1     9
  5.3936644132918994E-02 a       230     0    12     1    10
  1.7269350334159758E-01 a       231     0    12     1    11
 -2.0182323240378758E-01 a       232     0    12     1    12
  6.9474391990026016E-02 a       233     0    12     1    13
 -1.2770784118922712E-01 a       234     0    12     1    14
 -3.7204527691746164E-01 a       235     0    12     1    15
  1.3446129519506717E-01 a       236     0    12     1    16
  4.9438702704461784E-01 a       237     0    12     1    17
 -4.6046710900833804E-01 a       238     0    12     1    18
  7.9982845808519387E-02 a       239     0    12     1    19
 -1.9342910923307810E-01 a       240     0    12     1    20
 -1.7867441138790296E-02 a       241     0    13     1     1
  6.2458267037004855E-02 a       242     0    13     1     2
 -1.2379762051150342E-02 a       243     0    13     1     3
 -1.0677378691149593E-01 a       244     0    13     1     4
  9.8932308387340281E-02 a       245     0    13     1     5
  1.7639090382441941E-01 a       246     0    13     1     6
  2.6082212462867282E-01 a       247     0    13     1     7
 -1.6689242520337455E-01 a       248     0    13     1     8
 -1.3932279720210788E-01 a       249     0    13     1     9
 -1.7714259541113223E-01 a       250     0    13     1    10
  3.8098494979294123E-01 a       251     0    13     1    11
 -4.8651948423909369E-01 a       252     0    13     1    12
 -5.1221516187764715E-01 a       253     0    13     1    13
  6.3435844456566526E-02 a       254     0    13     1    14
 -3.8390136441703215E-01 a       255     0    13     1    15
  9.3153281852790190E-03 a       256     0    13     1    16
  5.4257927875920153E-02 a       257     0    13     1    17
 -2.1225283612199122E-01 a       258     0    13     1    18
  2.6360794455929021E-01 a       259     0    13     1    19
  4.8952864216652714E-01 a       260     0    13     1    20
  3.1300496520496696E-01 a       261     0    14     1     1
  7.2833840262019811E-01 a       262     0    14     1     2
  6.7587549877788666E-01 a       263     0    14     1     3
 -1.0334969248630008E+00 a       264     0    14     1     4
  5.2852384441729328E-01 a       265     0    14     1     5
  5.8446718567009670E-01 a       266     0    14     1     6
 -7.6088470731340571E-03 a       267     0    14     1     7
  1.7629179256438710E-01 a       268     0    14     1     8
 -4.0047518388644704E-01 a       269     0    14     1     9
 -3.9404323374296618E-01 a       270     0    14     1    10
  8.2462780063275587E-01 a       271     0    14     1    11
 -1.4751403311969977E+00 a       272     0    14     1    12
  4.4506242350190722E-01 a       273     0    14     1    13
  1.0322975812096956E-01 a       274     0    14     1    14
 -1.1738005616520939E+00 a       275     0    14     1    15
  2.3491144568265218E-01 a       276     0    14     1    16
  1.4072374936020375E+00 a       277     0    14     1    17
 -9.6740577187391763E-01 a       278     0    14     1    18
  7.1024611043971531E-01 a       279     0    14     1    19
 -1.9442883994353827E-01 a       280     0    14     1    20
 -6.6622236833493984E-02 a       281     0    15     1     1
  3.6428218016072947E-02 a       282     0    15     1     2
  1.4176269949223066E-01 a       283     0    15     1     3
 -8.8395275524035657E-02 a       284     0    15     1     4
  2.7074678181282857E-01 a       285     0    15     1     5
  1.7801171232032431E-01 a       286     0    15     1     6
  2.4896573524878499E-01 a       287     0    15     1     7
 -1.9323795841873545E-01 a       288     0    15     1     8
  3.6569393959759902E-02 a       289     0    15     1     9
  8.2048817429675361E-02 a       290     0    15     1    10
 -3.9468119694969057E-02 a       291     0    15     1    11
 -2.1414713168841706E-01 a       292     0    15     1    12
 -2.5946542626940922E-01 a       293     0    15     1    13
  1.0230800969447376E-01 a       294     0    15     1    14
 -6.7178204229184552E-02 a       295     0    15     1    15
  3.6080893279882353E-01 a       296     0    15     1    16
  1.8888638633965357E-01 a       297     0    15     1    17
 -1.5035166697561023E-01 a       298     0    15     1    18
 -3.1732866086019024E-03 a       299     0    15     1    19
  3.5874800981126048E-01 a       300     0    15     1    20
  7.3094492630686636E-01 a       301     0    16     1     1
  8.6408225903921609E-01 a       302     0    16     1     2
  1.4862638666444228E+00 a       303     0    16     1     3
 -1.4967090317693525E+00 a       304     0    16     1     4
  7.9442607156880196E-01 a       305     0    16     1     5
  8.2201734109251590E-01 a       306     0    16     1     6
  1.3162597132332934E-01 a       307     0    16     1     7
  3.5896635021537382E-01 a       308     0    16     1     8
 -8.9863268948364189E-02 a       309     0    16     1     9
  4.4361289394597804E-02 a       310     0    16     1    10
  1.6987416720425714E+00 a       311     0    16     1    11
 -2.1694494339502808E+00 a       312     0    16     1    12
  2.3701574170667222E-01 a       313     0    16     1    13
 -2.1743096838536041E-01 a       314     0    16     1    14
 -1.8534546301096884E+00 a       315     0    16     1    15
  2.7459308358801181E-02 a       316     0    16     1    16
  2.0158461058540085E+00 a       317     0    16     1    17
 -1.5655576059665444E+00 a       318     0    16     1    18
  7.0446033309219913E-01 a       319     0    16     1    19
  5.7736879015440035E-01 a       320     0    16     1    20
  3.9837551857544906E-01 a       321     0    17     1     1
  1.1306491754297743E-01 a       322     0    17     1     2
  3.7380885880322839E-01 a       323     0    17     1     3
 -5.2803746355093195E-01 a       324     0    17     1     4
  2.3488377810702504E-01 a       325     0    17     1     5
  1.3364711288209363E-01 a       326     0    17     1     6
  2.2539805594404744E-01 a       327     0    17     1     7
  2.8341988003024043E-01 a       328     0    17     1     8
 -2.0052190132305678E-01 a       329     0    17     1     9
  2.3273452764336947E-01 a       330     0    17     1    10
  6.5200881240341202E-01 a       331     0    17     1    11
 -5.4901846910564323E-01 a       332     0    17     1    12
 -2.1476111025538328E-01 a       333     0    17     1    13
  1.8419477898610315E-01 a       334     0    17     1    14
 -6.8316282380294147E-01 a       335     0    17     1    15
  1.6838191401516775E-01 a       336     0    17     1    16
  5.4514674557128029E-01 a       337     0    17     1    17
 -5.8588575072611349E-01 a       338     0    17     1    18
  1.6760635234863633E-01 a       339     0    17     1    19
 -1.9899885690448016E-01 a       340     0    17     1    20
  5.3828091842841908E-01 a       341     0    18     1     1
  4.0013828951289665E-01 a       342     0    18     1     2
  7.9926352345689067E-01 a       343     0    18     1     3
 -7.3650321664120166E-01 a       344     0    18     1     4
  3.3839780959828430E-01 a       345     0    18     1     5
  3.7018335653366541E-01 a       346     0    18     1     6
 -2.1376420077561092E-01 a       347     0    18     1     7
  3.6873657341151023E-01 a       348     0    18     1     8
  2.5989439117547830E-01 a       349     0    18     1     9
  1.3089630886018308E-01 a       350     0    18     1    10
  1.0162121942889679E+00 a       351     0    18     1    11
 -1.1851982388399369E+00 a       352     0    18     1    12
 -4.7042756993400388E-02 a       353     0    18     1    13
 -4.6630406784022435E-03 a       354     0    18     1    14
 -8.2955636262761545E-01 a       355     0    18     1    15
  1.0345326108394630E-01 a       356     0    18     1    16
  1.0228675743276687E+00 a       357     0    18     1    17
 -7.9240980505222136E-01 a       358     0    18     1    18
  4.0296682370183023E-01 a       359     0    18     1    19
 -5.9501997776694038E-01 a       360     0    18     1    20
  2.8615247516142533E-01 a       361     0    19     1     1
  6.1590934563923083E-01 a       362     0    19     1     2
  7.6515820796081624E-01 a       363     0    19     1     3
 -8.5774566715640044E-01 a       364     0    19     1     4
  4.5600924476676358E-01 a       365     0    19     1     5
  4.2141375757896449E-01 a       366     0    19     1     6
  4.3831748955507573E-02 a       367     0    19     1     7
  1.2884099003538557E-01 a       368     0    19     1     8
 -3.4343064935084383E-01 a       369     0    19     1     9
 -1.1813548270181816E-01 a       370     0    19     1    10
  7.6548175693938303E-01 a       371     0    19     1    11
 -1.1382112525012498E+00 a       372     0    19     1    12
 -3.0160546101842128E-01 a       373     0    19     1    13
  1.4537980803403044E-01 a       374     0    19     1    14
 -1.1791037687617638E+00 a       375     0    19     1    15
  1.2487841038073770E-01 a       376     0    19     1    16
  1.1111457443931161E+00 a       377     0    19     1    17
 -7.9494365492583041E-01 a       378     0    19     1    18
  6.0854056434538939E-01 a       379     0    19     1    19
 -1.9160494610539186E-01 a       380     0    19     1    20
  2.0954526186690306E-01 a       381     0    20     1     1
  1.7505609580062068E-01 a       382     0    20     1     2
  2.6046527676578307E-01 a       383     0    20     1     3
 -7.7789336543583998E-02 a       384     0    20     1     4
  1.8250262350748220E-01 a       385     0    20     1     5
  3.4003793406136612E-01 a       386     0    20     1     6
 -2.1370704604786983E-01 a       387     0    20     1     7
 -9.9207047685782895E-02 a       388     0    20     1     8
 -4.3416724618223462E-01 a       389     0    20     1     9
 -2.5595765537723986E-01 a       390     0    20     1    10
  1.6590345335423137E-01 a       391     0    20     1    11
 -3.7803937387729558E-01 a       392     0    20     1    12
 -2.9675908551961816E-01 a       393     0    20     1    13
 -2.7770477057154169E-01 a       394     0    20     1    14
 -3.4672976153739304E-01 a       395     0    20     1    15
 -2.5675138188328415E-02 a       396     0    20     1    16
  2.7589665801297247E-01 a       397     0    20     1    17
 -2.4415104195563370E-01 a       398     0    20     1    18
  2.1486934294565785E-01 a       399     0    20     1    19
  3.7541896809301922E-01 a       400     0    20     1    20
  2.9984076657316538E-01 a       401     0    21     1     1
  3.7531705506267810E-01 a       402     0    21     1     2
  5.3044622388857476E-01 a       403     0    21     1     3
 -4.6594547203570308E-01 a       404     0    21     1     4
  4.0393742848211073E-01 a       405     0    21     1     5
  4.8017630497217273E-01 a       406     0    21     1     6
  3.0247425126594063E-01 a       407     0    21     1     7
  1.4634312888537387E-01 a       408     0    21     1     8
 -2.0119268831525280E-01 a       409     0    21     1     9
 -1.3083712446555021E-01 a       410     0    21     1    10
  7.9240176836337439E-01 a       411     0    21     1    11
 -8.3304998060234603E-01 a       412     0    21     1    12
  1.8672559539299061E-01 a       413     0    21     1    13
  3.8353157901138735E-01 a       414     0    21     1    14
 -7.4761329806557664E-01 a       415     0    21     1    15
  2.8827082839639034E-01 a       416     0    21     1    16
  8.6706816740255999E-01 a       417     0    21     1    17
 -5.5205272787654347E-01 a       418     0    21     1    18
  4.7016484173465378E-01 a       419     0    21     1    19
  1.0209073605382428E-01 a       420     0    21     1    20
 -7.3854742734432516E-02 a       421     0    22     1     1
  7.9297890518420816E-02 a       422     0    22     1     2
  1.7075152684148637E-01 a       423     0    22     1     3
  1.6606871801495671E-01 a       424     0    22     1     4
  2.2208192790452674E-01 a       425     0    22     1     5
  3.7404803181184088E-01 a       426     0    22     1     6
  1.7170087932297654E-01 a       427     0    22     1     7
 -3.2585062417530952E-01 a       428     0    22     1     8
 -3.0241344035823270E-01 a       429     0    22     1     9
  2.1912356801687596E-01 a       430     0    22     1    10
  1.3941253146873434E-01 a       431     0    22     1    11
 -2.1077833463317100E-01 a       432     0    22     1    12
  8.2660129115937564E-02 a       433     0    22     1    13
 -1.2794858595444264E-01 a       434     0    22     1    14
 -6.0720288164193649E-02 a       435     0    22     1    15
  1.8874060417794339E-01 a       436     0    22     1    16
  8.2259471496332670E-02 a       437     0    22     1    17
 -5.1547719819971236E-02 a       438     0    22     1    18
 -6.0657449372066102E-02 a       439     0    22     1    19
  3.0909752171407640E-01 a       440     0    22     1    20
  2.4777964340475805E-01 a       441     0    23     1     1
  1.8521333737565013E-01 a       442     0    23     1     2
  1.3659759590143258E-01 a       443     0    23     1     3
 -3.3753607140342479E-01 a       444     0    23     1     4
  1.9464841744752026E-01 a       445     0    23     1     5
 -8.3443013960298212E-02 a       446     0    23     1     6
  5.1979348900784283E-01 a       447     0    23     1     7
 -5.1361311324681962E-02 a       448     0    23     1     8
 -2.9885729673444529E-02 a       449     0    23     1     9
 -9.9249272635947877E-02 a       450     0    23     1    10
  3.0607932362963797E-01 a       451     0    23     1    11
 -1.9191375963621504E-01 a       452     0    23     1    12
  4.9335017134558495E-01 a       453     0    23     1    13
  1.5341880000382649E-01 a       454     0    23     1    14
 -3.4074840248043564E-01 a       455     0    23     1    15
  3.9108680509455956E-02 a       456     0    23     1    16
  4.3247593582950633E-01 a       457     0    23     1    17
 -3.1555623818732548E-01 a       458     0    23     1    18
  1.0134664703322938E-01 a       459     0    23     1    19
  1.2620048751322802E-01 a       460     0    23     1    20
 -1.7896794215173237E-01 a       461     0    24     1     1
  6.5386218292070072E-02 a       462     0    24     1     2
 -4.0815497906972767E-02 a       463     0    24     1     3
 -1.9109338016043385E-02 a       464     0    24     1     4
  1.6358000703316011E-01 a       465     0    24     1     5
 -1.1557530771849478E-01 a       466     0    24     1     6
  5.9712610167707660E-02 a       467     0    24     1     7
  5.3819702144329740E-02 a       468     0    24     1     8
  7.3066350380800713E-02 a       469     0    24     1     9
 -5.1509470018386981E-02 a       470     0    24     1    10
 -2.0574330362793933E-01 a       471     0    24     1    11
 -1.8518095461911893E-01 a       472     0    24     1    12
  3.3075222315867842E-01 a       473     0    24     1    13
 -8.2059839560941220E-02 a       474     0    24     1    14
  4.6006112900025951E-02 a       475     0    24     1    15
  1.4602079919337210E-01 a       476     0    24     1    16
  1.8995689617447528E-01 a       477     0    24     1    17
  1.8454331644916797E-01 a       478     0    24     1    18
 -1.6983710114326372E-01 a       479     0    24     1    19
 -1.6116170149858333E-01 a       480     0    24     1    20
  1.6066079317774182E-01 a       481     0    25     1     1
 -5.0746409021756804E-02 a       482     0    25     1     2
  8.8027685901008457E-02 a       483     0    25     1     3
 -1.5399572418873872E-01 a       484     0    25     1     4
 -1.3623266627981316E-02 a       485     0    25     1     5
 -1.2750771707618222E-01 a       486     0    25     1     6
  1.5773495234146984E-01 a       487     0    25     1     7
 -6.9238445583392705E-02 a       488     0    25     1     8
 -2.6040912807632677E-01 a       489     0    25     1     9
  2.1764362995923670E-01 a       490     0    25     1    10
  5.8731938923095479E-02 a       491     0    25     1    11
  4.8991735736617352E-02 a       492     0    25     1    12
  2.3863947319134901E-01 a       493     0    25     1    13
  3.5741979670464308E-01 a       494     0    25     1    14
 -1.4034396909872626E-01 a       495     0    25     1    15
 -1.6624448545389942E-01 a       496     0    25     1    16
  4.4140168435506326E-02 a       497     0    25     1    17
  1.8096177774579233E-01 a       498     0    25     1    18
 -1.4991766660882369E-01 a       499     0    25     1    19
 -8.3847678636707709E-02 a       500     0    25     1    20
 -1.7724199653445810E-01 a       501     0    26     1     1
 -4.3180857171474544E-03 a       502     0    26     1     2
 -6.8590858181373310E-02 a       503     0    26     1     3
 -1.3399141145805782E-01 a       504     0    26     1     4
  1.0378134947029199E-01 a       505     0    26     1     5
 -2.0527011276473139E-01 a       506     0    26     1     6
  3.3484782826137388E-01 a       507     0    26     1     7
  1.7142166474580930E-01 a       508     0    26     1     8
 -1.3181136011108407E-01 a       509     0    26     1     9
 -6.4151331765683869E-02 a       510     0    26     1    10
 -1.4257184608602827E-01 a       511     0    26     1    11
  1.0472042034298952E-01 a       512     0    26     1    12
 -2.1884073034686025E-01 a       513     0    26     1    13
  1.9751765028966216E-02 a       514     0    26     1    14
  1.7966447010253231E-01 a       515     0    26     1    15
  2.1796373272166691E-01 a       516     0    26     1    16
  1.2788933049108953E-01 a       517     0    26     1    17
 -3.0507630414205535E-02 a       518     0    26     1    18
 -1.4246246247940431E-01 a       519     0    26     1    19
  3.8763983398432206E-02 a       520     0    26     1    20
  1.5436568563732947E-01 a       521     0    27     1     1
 -2.6173472621312231E-02 a       522     0    27     1     2
  1.1565570946907365E-01 a       523     0    27     1     3
  1.4508039899705902E-01 a       524     0    27     1     4
 -1.9142177403420918E-01 a       525     0    27     1     5
  1.0912511040108058E-01 a       526     0    27     1     6
  5.1541330330140356E-01 a       527     0    27     1     7
 -4.4837155490781450E-03 a       528     0    27     1     8
 -2.1248405882615942E-01 a       529     0    27     1     9
  6.8366554703592611E-02 a       530     0    27     1    10
 -9.5289096705108600E-02 a       531     0    27     1    11
 -8.7882338217605660E-02 a       532     0    27     1    12
 -1.8413566334721915E-01 a       533     0    27     1    13
  1.6557381549036840E-01 a       534     0    27     1    14
  1.5271088774768066E-01 a       535     0    27     1    15
  8.8729553498690217E-02 a       536     0    27     1    16
 -2.0590244891195569E-01 a       537     0    27     1    17
 -1.3799550926601878E-01 a       538     0    27     1    18
 -1.1706572397384646E-01 a       539     0    27     1    19
 -2.0885343903933869E-02 a       540     0    27     1    20
  2.0668142676772491E-01 a       541     0    28     1     1
  1.1234959508733418E-01 a       542     0    28     1     2
 -9.5826759565290021E-02 a       543     0    28     1     3
  1.7915942898192561E-01 a       544     0    28     1     4
  6.0257437573431041E-03 a       545     0    28     1     5
  8.6680373660866640E-04 a       546     0    28     1     6
 -1.2017188040740573E-01 a       547     0    28     1     7
  2.1638597980568541E-01 a       548     0    28     1     8
 -1.7139019490153534E-01 a       549     0    28     1     9
 -1.3054781616258259E-02 a       550     0    28     1    10
  4.7132488067364114E-02 a       551     0    28     1    11
  1.3237443626449330E-01 a       552     0    28     1    12
 -2.1063138595525491E-01 a       553     0    28     1    13
 -6.9189106806778297E-02 a       554     0    28     1    14
  1.6615864162072530E-01 a       555     0    28     1    15
 -4.7606743696184659E-02 a       556     0    28     1    16
  1.3713358663233846E-01 a       557     0    28     1    17
 -1.4899915683152626E-01 a       558     0    28     1    18
  1.0574174174335770E-01 a       559     0    28     1    19
  4.6961281761895707E-03 a       560     0    28     1    20
 -6.7762203140216172E-03 a       561     0    29     1     1
 -1.9021218937847503E-01 a       562     0    29     1     2
  4.2771739019173784E-02 a       563     0    29     1     3
 -1.5220695737112910E-01 a       564     0    29     1     4
 -1.4405791179226710E-01 a       565     0    29     1     5
 -1.9710012837237431E-01 a       566     0    29     1     6
 -9.1450009140519151E-02 a       567     0    29     1     7
  1.8727219701867898E-01 a       568     0    29     1     8
  8.3568062836221896E-02 a       569     0    29     1     9
  9.5098240231862391E-02 a       570     0    29     1    10
  1.8728307654341848E-02 a       571     0    29     1    11
 -1.8991034168861626E-01 a       572     0    29     1    12
 -2.4903240809107483E-01 a       573     0    29     1    13
  1.9339424859326862E-01 a       574     0    29     1    14
  9.0084488894447118E-02 a       575     0    29     1    15
  1.7526437541300627E-01 a       576     0    29     1    16
  6.7469153816289484E-02 a       577     0    29     1    17
  5.8103579318253058E-02 a       578     0    29     1    18
 -4.7265739613478082E-02 a       579     0    29     1    19
  2.4532199060521678E-01 a       580     0    29     1    20
  2.1193917079485708E-01 a       581     0    30     1     1
  6.6924818801423841E-02 a       582     0    30     1     2
  1.8639004541832585E-01 a       583     0    30     1     3
  1.9874315291055769E-01 a       584     0    30     1     4
 -9.3430985293352156E-02 a       585     0    30     1     5
  1.6316756635963184E-01 a       586     0    30     1     6
  1.7003429003875814E-01 a       587     0    30     1     7
  1.2945079817662900E-01 a       588     0    30     1     8
  1.9562393688006677E-01 a       589     0    30     1     9
  6.4301658695211553E-02 a       590     0    30     1    10
 -2.5447216951951051E-02 a       591     0    30     1    11
  1.2990473502138794E-01 a       592     0    30     1    12
 -3.9181136551303619E-02 a       593     0    30     1    13
  1.2992318744252013E-01 a       594     0    30     1    14
  1.9317731799391342E-02 a       595     0    30     1    15
  2.2255143037750582E-02 a       596     0    30     1    16
  1.4523770994520561E-02 a       597     0    30     1    17
 -2.0974971998453554E-01 a       598     0    30     1    18
  1.2607956366450021E-01 a       599     0    30     1    19
 -1.8150380171754049E-01 a       600     0    30     1    20
 -1.7832726146229404E-02 a       601     0    31     1     1
 -1.8695446270825006E-01 a       602     0    31     1     2
  2.0929247066490364E-01 a       603     0    31     1     3
 -1.0550724534833525E-01 a       604     0    31     1     4
  7.2841083306186605E-02 a       605     0    31     1     5
 -6.9422213320657428E-02 a       606     0    31     1     6
 -3.8947803663596969E-01 a       607     0    31     1     7
 -1.1780265411710920E-01 a       608     0    31     1     8
 -2.1256906671403042E-01 a       609     0    31     1     9
 -1.1155987297718248E-03 a       610     0    31     1    10
 -3.0529939120190759E-02 a       611     0    31     1    11
 -1.5488158008049374E-01 a       612     0    31     1    12
  2.1595704651238787E-01 a       613     0    31     1    13
  1.8665888501141800E-01 a       614     0    31     1    14
  1.4888492978588236E-01 a       615     0    31     1    15
  2.1698504812706480E-03 a       616     0    31     1    16
 -3.9351535852014258E-02 a       617     0    31     1    17
 -6.2745328644369769E-02 a       618     0    31     1    18
 -6.3772641718963467E-03 a       619     0    31     1    19
  2.4113665970787077E-01 a       620     0    31     1    20
 -8.4141213551770927E-02 a       621     0    32     1     1
 -5.8103186031454666E-02 a       622     0    32     1     2
 -1.2190597441369848E-01 a       623     0    32     1     3
 -1.4613117945629431E-01 a       624     0    32     1     4
  1.6897642171045094E-01 a       625     0    32     1     5
  1.5396881043492705E-01 a       626     0    32     1     6
  8.5670287196569980E-03 a       627     0    32     1     7
  1.6470684284800995E-02 a       628     0    32     1     8
 -1.3547240980709488E-01 a       629     0    32     1     9
 -6.1227983562492073E-02 a       630     0    32     1    10
 -1.8547240007443547E-01 a       631     0    32     1    11
  2.1068364169942563E-01 a       632     0    32     1    12
 -1.4240513017329540E-01 a       633     0    32     1    13
  1.7354101259851312E-01 a       634     0    32     1    14
  1.6988468706055143E-01 a       635     0    32     1    15
 -2.0022545763231658E-01 a       636     0    32     1    16
 -3.9861812355969473E-02 a       637     0    32     1    17
  1.6994038070820619E-01 a       638     0    32     1    18
 -5.8876222571458220E-02 a       639     0    32     1    19
 -1.6492187144853607E-01 a       640     0    32     1    20
 -1.3349351393904835E-01 a       641     0    33     1     1
  1.7716383528597443E-01 a       642     0    33     1     2
  2.6583997474477122E-02 a       643     0    33     1     3
  1.7968837385286965E-01 a       644     0    33     1     4
 -1.3595698319192939E-01 a       645     0    33     1     5
  1.2005776500336995E-01 a       646     0    33     1     6
 -5.2808717197723322E-02 a       647     0    33     1     7
  1.4362742817872393E-01 a       648     0    33     1     8
  2.2028317328009292E-01 a       649     0    33     1     9
  2.2526233712187677E-01 a       650     0    33     1    10
 -1.3502876728697966E-01 a       651     0    33     1    11
 -1.2469049659654770E-01 a       652     0    33     1    12
 -3.5942292517398645E-02 a       653     0    33     1    13
 -1.5484526121935063E-02 a       654     0    33     1    14
  8.3610455435037645E-02 a       655     0    33     1    15
 -4.2230734196710490E-01 a       656     0    33     1    16
 -8.6282871310026904E-02 a       657     0    33     1    17
  2.5181325475447946E-02 a       658     0    33     1    18
 -1.3398772263895992E-01 a       659     0    33     1    19
 -2.2863812246027557E-01 a       660     0    33     1    20
 -1.5127272916652590E-01 a       661     0    34     1     1
 -4.6894702182225648E-02 a       662     0    34     1     2
 -1.5860507514067823E-01 a       663     0    34     1     3
  9.0390240848615924E-02 a       664     0    34     1     4
  9.0231968581342109E-02 a       665     0    34     1     5
 -2.5324355086110920E-02 a       666     0    34     1     6
 -1.5516590211230305E-01 a       667     0    34     1     7
  3.6135387952433151E-02 a       668     0    34     1     8
  1.1933211994828712E-01 a       669     0    34     1     9
 -9.3955947703020827E-03 a       670     0    34     1    10
 -4.1610403881297053E-02 a       671     0    34     1    11
  3.6821159919145981E-02 a       672     0    34     1    12
  1.0416373205601863E-01 a       673     0    34     1    13
 -1.2729363444126768E-01 a       674     0    34     1    14
  1.7063678709782820E-01 a       675     0    34     1    15
 -1.0806196551377618E-01 a       676     0    34     1    16
  1.5208827635974476E-01 a       677     0    34     1    17
  1.5510210035982058E-01 a       678     0    34     1    18
  1.1289808378571413E-01 a       679     0    34     1    19
 -1.7794612448789063E-01 a       680     0    34     1    20
  2.0510186084352797E-01 a       681     0    35     1     1
  7.7125509115262680E-03 a       682     0    35     1     2
 -2.0753604940492354E-01 a       683     0    35     1     3
 -2.0665881229175001E-01 a       684     0    35     1     4
 -1.0445136744667191E-02 a       685     0    35     1     5
 -2.0902537455691811E-01 a       686     0    35     1     6
 -6.0791282865208615E-02 a       687     0    35     1     7
  1.2546462296247915E-01 a       688     0    35     1     8
  9.8993848644964577E-02 a       689     0    35     1     9
  1.6651432012615658E-01 a       690     0    35     1    10
 -2.0089796129682685E-01 a       691     0    35     1    11
 -2.8664258997018318E-03 a       692     0    35     1    12
  2.2485695728936370E-01 a       693     0    35     1    13
  2.1507167268889354E-01 a       694     0    35     1    14
 -6.8603405738170919E-02 a       695     0    35     1    15
 -9.7667722558510750E-02 a       696     0    35     1    16
 -2.0535342616927860E-01 a       697     0    35     1    17
  6.2461498417199668E-02 a       698     0    35     1    18
 -1.9870986138080488E-01 a       699     0    35     1    19
 -1.7899434498539255E-01 a       700     0    35     1    20
  9.8287584703490249E-02 a       701     0    36     1     1
 -1.5030534153123234E-01 a       702     0    36     1     2
  1.8454086084665211E-01 a       703     0    36     1     3
 -7.0108693691834645E-02 a       704     0    36     1     4
  3.1181580256755586E-02 a       705     0    36     1     5
  8.2080880864266667E-02 a       706     0    36     1     6
  1.4159830524351100E-01 a       707     0    36     1     7
 -5.0492959256816732E-02 a       708     0    36     1     8
  1.3712093274896936E-01 a       709     0    36     1     9
  1.0507974077583256E-01 a       710     0    36     1    10
  1.2814190837462497E-01 a       711     0    36     1    11
 -5.0684140910285336E-02 a       712     0    36     1    12
  1.8108649489825046E-01 a       713     0    36     1    13
  7.0362125674032466E-02 a       714     0    36     1    14
  1.3600901993081799E-01 a       715     0    36     1    15
 -6.6514856422244653E-02 a       716     0    36     1    16
 -2.1296877792583910E-01 a       717     0    36     1    17
  2.7353520628666263E-03 a       718     0    36     1    18
  1.2770563835917112E-01 a       719     0    36     1    19
 -1.9026220473896904E-01 a       720     0    36     1    20
 -2.9259672157504753E-02 a       721     0    37     1     1
 -3.6824990356175522E-02 a       722     0    37     1     2
 -5.6937933177134289E-02 a       723     0    37     1     3
  2.5883561622421898E-02 a       724     0    37     1     4
 -1.4300150592088581E-01 a       725     0    37     1     5
 -1.8630374778387332E-01 a       726     0    37     1     6
  4.9856197285710689E-02 a       727     0    37     1     7
  1.1622550573056611E-01 a       728     0    37     1     8
 -3.2301193930546021E-02 a       729     0    37     1     9
 -1.6556700328987983E-01 a       730     0    37     1    10
  9.0532431383662390E-02 a       731     0    37     1    11
 -2.0787755898537941E-01 a       732     0    37     1    12
  1.5754677861782079E-01 a       733     0    37     1    13
 -1.1577238239873877E-01 a       734     0    37     1    14
 -2.0643340557758158E-01 a       735     0    37     1    15
 -5.3580777391371029E-02 a       736     0    37     1    16
  5.8917431344820193E-02 a       737     0    37     1    17
 -1.5017525435562945E-02 a       738     0    37     1    18
 -1.2602880075388923E-01 a       739     0    37     1    19
 -2.5590731792885103E-02 a       740     0    37     1    20
  1.8211656914497082E-01 a       741     0    38     1     1
 -1.3312448410565803E-01 a       742     0    38     1     2
 -3.1004621596989392E-02 a       743     0    38     1     3
 -8.0775636989701319E-02 a       744     0    38     1     4
  1.3347816588793987E-01 a       745     0    38     1     5
  1.1930215844570312E-01 a       746     0    38     1     6
  1.8276303497534327E-01 a       747     0    38     1     7
 -8.0151818365383071E-02 a       748     0    38     1     8
  3.3146886172253504E-02 a       749     0    38     1     9
  1.1614227750118628E-02 a       750     0    38     1    10
 -3.8268678673880598E-02 a       751     0    38     1    11
  1.5685490535792787E-01 a       752     0    38     1    12
 -1.8931773829166471E-01 a       753     0    38     1    13
 -2.0893878999236340E-01 a       754     0    38     1    14
  1.5327834839499077E-01 a       755     0    38     1    15
  8.0629251778984029E-02 a       756     0    38     1    16
 -2.7919606177663189E-02 a       757     0    38     1    17
 -5.0614436899397680E-02 a       758     0    38     1    18
 -2.7531416295512672E-03 a       759     0    38     1    19
 -3.5843982998590172E-02 a       760     0    38     1    20
 -6.2386215193484884E-03 a       761     0    39     1     1
 -2.0529355443822822E-01 a       762     0    39     1     2
  1.9333036198599543E-01 a       763     0    39     1     3
  1.3732352920511803E-01 a       764     0    39     1     4
 -1.2657929202805482E-01 a       765     0    39     1     5
  3.6124194120361386E-02 a       766     0    39     1     6
 -1.3737918099661539E-01 a       767     0    39     1     7
 -1.2300339982108562E-01 a       768     0    39     1     8
  6.3684572613317461E-02 a       769     0    39     1     9
 -9.2443144917784451E-02 a       770     0    39     1    10
  2.0715033538969760E-01 a       771     0    39     1    11
 -1.0503006933551114E-01 a       772     0    39     1    12
 -1.7039259103668762E-02 a       773     0    39     1    13
  5.6354819363987681E-02 a       774     0    39     1    14
  5.2758473528793275E-03 a       775     0    39     1    15
  1.6055461371350546E-01 a       776     0    39     1    16
 -5.2157646266500567E-02 a       777     0    39     1    17
  3.0372805184034617E-02 a       778     0    39     1    18
  4.4395533027352094E-02 a       779     0    39     1    19
 -9.0051827151554589E-02 a       780     0    39     1    20
  2.8948821485732006E-02 a       781     0    40     1     1
 -6.2888814584461758E-02 a       782     0    40     1     2
  8.8685451936232590E-02 a       783     0    40     1     3
 -1.3965174665933622E-01 a       784     0    40     1     4
  1.4096020640005549E-01 a       785     0    40     1     5
 -2.0068540632605708E-01 a       786     0    40     1     6
  1.9559108925772703E-01 a       787     0    40     1     7
  1.8465901404518734E-02 a       788     0    40     1     8
  2.0550633356253428E-01 a       789     0    40     1     9
  1.6194874548588277E-03 a       790     0    40     1    10
 -5.0035353234108682E-02 a       791     0    40     1    11
  4.6991516990390510E-02 a       792     0    40     1    12
 -2.0081735152071081E-01 a       793     0    40     1    13
 -5.4459634271635951E-03 a       794     0    40     1    14
 -8.2718126833333613E-02 a       795     0    40     1    15
 -1.0995394441079491E-01 a       796     0    40     1    16
  7.9136769913830007E-02 a       797     0    40     1    17
  1.2136582287663343E-01 a       798     0    40     1    18
  1.5977618932269044E-01 a       799     0    40     1    19
 -1.0897756714538233E-01 a       800     0    40     1    20
 -1.4451243215377932E-01 a       801     0    41     1     1
  8.0676992246703369E-02 a       802     0    41     1     2
  8.6244923019665798E-02 a       803     0    41     1     3
 -1.6481431975518956E-01 a       804     0    41     1     4
 -9.6903572326588222E-02 a       805     0    41     1     5
  2.5255526109930260E-01 a       806     0    41     1     6
 -1.6500947998941587E-01 a       807     0    41     1     7
 -1.3979695939292106E-01 a       808     0    41     1     8
 -2.2693839222746825E-02 a       809     0    41     1     9
  1.6096801162236285E-01 a       810     0    41     1    10
  2.5295645725774546E-01 a       811     0    41     1    11
  5.5344466663273056E-02 a       812     0    41     1    12
 -2.3276304427083636E-01 a       813     0    41     1    13
  7.8777393516193020E-02 a       814     0    41     1    14
 -7.3207778934190088E-02 a       815     0    41     1    15
  8.2374286554982731E-02 a       816     0    41     1    16
  1.6028573291384013E-01 a       817     0    41     1    17
 -3.5102069452773645E-02 a       818     0    41     1    18
  2.3131150166215009E-01 a       819     0    41     1    19
 -1.4406469507198857E-01 a       820     0    41     1    20
 -5.1651081149253299E-02 a       821     0    42     1     1
  8.8825782703793738E-03 a       822     0    42     1     2
  2.1425519648688196E-01 a       823     0    42     1     3
 -6.2537194326955703E-02 a       824     0    42     1     4
  2.3355611496910589E-03 a       825     0    42     1     5
  2.3124698801219343E-01 a       826     0    42     1     6
  3.1187669626987957E-01 a       827     0    42     1     7
 -2.0269148525608890E-01 a       828     0    42     1     8
 -2.6496575057565930E-01 a       829     0    42     1     9
 -5.7816625737523906E-02 a       830     0    42     1    10
 -1.1142081807164239E-01 a       831     0    42     1    11
 -1.6037937348138595E-01 a       832     0    42     1    12
 -2.5674220447941304E-01 a       833     0    42     1    13
 -7.6302552720257669E-02 a       834     0    42     1    14
 -9.8744753530032689E-02 a       835     0    42     1    15
 -7.3886249694655348E-02 a       836     0    42     1    16
  1.2929078615168671E-01 a       837     0    42     1    17
 -1.4709106155227589E-01 a       838     0    42     1    18
  1.4886974871790062E-01 a       839     0    42     1    19
  1.7652404574178590E-01 a       840     0    42     1    20
  1.9735760319979409E-01 a       841     0    43     1     1
 -4.0641862188918874E-02 a       842     0    43     1     2
 -1.7988715195642505E-01 a       843     0    43     1     3
 -1.4688562678290104E-01 a       844     0    43     1     4
  7.3676883355644485E-02 a       845     0    43     1     5
 -8.0363143581557911E-02 a       846     0    43     1     6
  9.7831031706186219E-02 a       847     0    43     1     7
  1.9820728263695150E-01 a       848     0    43     1     8
 -2.1052041292737569E-01 a       849     0    43     1     9
 -1.0032532365651040E-01 a       850     0    43     1    10
  1.6122364033226592E-02 a       851     0    43     1    11
 -1.3168232127162288E-01 a       852     0    43     1    12
 -9.6428173535059697E-02 a       853     0    43     1    13
 -1.0846593439419797E-01 a       854     0    43     1    14
 -9.8879864571639262E-03 a       855     0    43     1    15
 -8.1659180685207056E-02 a       856     0    43     1    16
  5.3683111994035755E-02 a       857     0    43     1    17
 -8.5291186930341517E-02 a       858     0    43     1    18
 -3.7871781315728797E-02 a       859     0    43     1    19
 -5.5394553451403967E-03 a       860     0    43     1    20
  1.6770495583652435E-03 a       861     0    44     1     1
 -7.6902567649050332E-02 a       862     0    44     1     2
  5.3785101118439982E-02 a       863     0    44     1     3
  1.9575667976081838E-02 a       864     0    44     1     4
  3.4166177675018498E-02 a       865     0    44     1     5
 -3.5897249974941180E-03 a       866     0    44     1     6
  1.3398755818936769E-01 a       867     0    44     1     7
 -1.6157439203343085E-01 a       868     0    44     1     8
 -1.5325733304701525E-01 a       869     0    44     1     9
  2.4073577439880156E-01 a       870     0    44     1    10
 -2.8709952714789707E-02 a       871     0    44     1    11
 -1.4320548278778841E-01 a       872     0    44     1    12
  3.1926478494772409E-01 a       873     0    44     1    13
 -4.2926727045507723E-01 a       874     0    44     1    14
 -2.5714572659143681E-01 a       875     0    44     1    15
  8.7892651786909234E-02 a       876     0    44     1    16
  8.8624612026105248E-02 a       877     0    44     1    17
 -9.7730182787283251E-02 a       878     0    44     1    18
  1.1549067188678133E-01 a       879     0    44     1    19
 -5.7265783325879283E-02 a       880     0    44     1    20
  3.9342545368875553E-01 a       881     0    45     1     1
  1.6771624422096085E-01 a       882     0    45     1     2
  5.3686763920110259E-01 a       883     0    45     1     3
 -5.0425811715188029E-01 a       884     0    45     1     4
  2.1406899585606937E-01 a       885     0    45     1     5
  4.3205593241286511E-01 a       886     0    45     1     6
 -1.4294170697899447E-01 a       887     0    45     1     7
  2.5094866559948892E-01 a       888     0    45     1     8
  3.4737761533326271E-02 a       889     0    45     1     9
  1.0372500939327511E-01 a       890     0    45     1    10
  6.2747382117537043E-01 a       891     0    45     1    11
 -5.9463529150448113E-01 a       892     0    45     1    12
  5.9018800981693875E-01 a       893     0    45     1    13
  5.4818134660193051E-02 a       894     0    45     1    14
 -6.6340591724544729E-01 a       895     0    45     1    15
 -4.9783342087504168E-01 a       896     0    45     1    16
  5.7599853780474020E-01 a       897     0    45     1    17
 -5.8266955402740528E-01 a       898     0    45     1    18
  1.3221228754611386E-01 a       899     0    45     1    19
 -1.7506591810103769E-01 a       900     0    45     1    20
  1.8746499985896012E-01 a       901     0    46     1     1
 -1.8658409741728110E-01 a       902     0    46     1     2
 -5.6588255082325935E-02 a       903     0    46     1     3
  1.5911451549689562E-01 a       904     0    46     1     4
 -1.5787179759903636E-01 a       905     0    46     1     5
  2.7757678637727320E-02 a       906     0    46     1     6
 -1.3204532251289913E-01 a       907     0    46     1     7
  1.4184274574159159E-01 a       908     0    46     1     8
  1.6913656871895619E-01 a       909     0    46     1     9
  1.5650899101765206E-01 a       910     0    46     1    10
 -6.3727153317870863E-02 a       911     0    46     1    11
 -1.0609812012940636E-01 a       912     0    46     1    12
 -3.8126782151546718E-01 a       913     0    46     1    13
  3.1142071969564411E-01 a       914     0    46     1    14
  3.5411566734070192E-02 a       915     0    46     1    15
  6.3088990262755840E-01 a       916     0    46     1    16
 -1.2152996050292705E-01 a       917     0    46     1    17
 -1.3593420389169159E-01 a       918     0    46     1    18
  2.0064421325100526E-01 a       919     0    46     1    19
  6.2650754825859800E-02 a       920     0    46     1    20
  1.9695757292936944E-01 a       921     0    47     1     1
 -1.1569161587959211E-01 a       922     0    47     1     2
  9.7370586480653151E-02 a       923     0    47     1     3
 -9.6641580787557441E-03 a       924     0    47     1     4
 -1.6761453705277352E-01 a       925     0    47     1     5
 -6.1930745404945593E-02 a       926     0    47     1     6
  1.2621141326903382E-01 a       927     0    47     1     7
 -1.0009852071887466E-01 a       928     0    47     1     8
 -1.0726289447476196E-01 a       929     0    47     1     9
 -5.0626036982666371E-02 a       930     0    47     1    10
 -1.1728831986627589E-01 a       931     0    47     1    11
  5.9889266463821873E-02 a       932     0    47     1    12
  1.0058154023220155E-01 a       933     0    47     1    13
  1.1754914168460943E-01 a       934     0    47     1    14
  2.2807019242676318E-02 a       935     0    47     1    15
 -1.0290043958527556E-01 a       936     0    47     1    16
  6.7432795681346469E-02 a       937     0    47     1    17
  7.1047044903111756E-02 a       938     0    47     1    18
 -6.4674287281558232E-02 a       939     0    47     1    19
 -3.9285343505850362E-02 a       940     0    47     1    20
 -1.4984094911490742E-01 a       941     0    48     1     1
 -2.1437248827008271E-01 a       942     0    48     1     2
  1.2283322576275027E-01 a       943     0    48     1     3
 -8.0955688999603717E-02 a       944     0    48     1     4
 -5.5224218161976805E-02 a       945     0    48     1     5
  1.9799427782439463E-01 a       946     0    48     1     6
 -1.9943040800807574E-01 a       947     0    48     1     7
 -4.6584351639451189E-02 a       948     0    48     1     8
  7.9626197796817330E-02 a       949     0    48     1     9
  1.1021480260978959E-01 a       950     0    48     1    10
  6.0481173733949768E-02 a       951     0    48     1    11
  5.8451736418566429E-02 a       952     0    48     1    12
  1.3070772786015329E-02 a       953     0    48     1    13
 -3.7695595192863279E-02 a       954     0    48     1    14
  1.9262706732002196E-02 a       955     0    48     1    15
  1.6060808603422193E-02 a       956     0    48     1    16
 -1.8477788266329986E-01 a       957     0    48     1    17
  3.4585255184467784E-02 a       958     0    48     1    18
  2.1340584548701821E-01 a       959     0    48     1    19
  1.8258417098802179E-01 a       960     0    48     1    20
  1.1743118845938004E-01 a       961     0    49     1     1
 -1.4916033917931848E-01 a       962     0    49     1     2
  1.7799827093368795E-01 a       963     0    49     1     3
 -4.3383588914154399E-02 a       964     0    49     1     4
 -1.7362308693134684E-01 a       965     0    49     1     5
  1.0688034112586020E-01 a       966     0    49     1     6
  2.8491841556593216E-02 a       967     0    49     1     7
  8.5023870776886015E-02 a       968     0    49     1     8
  1.2166086232809840E-01 a       969     0    49     1     9
 -1.7789736478714808E-02 a       970     0    49     1    10
  1.0431342596175537E-02 a       971     0    49     1    11
 -2.0046369427210864E-01 a       972     0    49     1    12
 -1.1860307046538224E-01 a       973     0    49     1    13
  1.2090510120431576E-01 a       974     0    49     1    14
  1.6168017538659446E-01 a       975     0    49     1    15
 -3.5581701343768611E-02 a       976     0    49     1    16
 -1.7340802385539828E-02 a       977     0    49     1    17
 -1.4990560237081285E-01 a       978     0    49     1    18
  3.1860066261064718E-02 a       979     0    49     1    19
 -2.1344837973322487E-02 a       980     0    49     1    20
 -1.6020146789395973E-01 a       981     0    50     1     1
 -1.6125422470669770E-01 a       982     0    50     1     2
  9.6811652220480854E-02 a       983     0    50     1     3
 -1.9056185742274215E-01 a       984     0    50     1     4
 -4.2335567510602190E-02 a       985     0    50     1     5
 -1.2845771244739035E-01 a       986     0    50     1     6
  2.8193037026519163E-01 a       987     0    50     1     7
  3.6274012461516021E-02 a       988     0    50     1     8
  3.1153211917361860E-02 a       989     0    50     1     9
 -8.4223584275036220E-02 a       990     0    50     1    10
 -3.4407557299312698E-02 a       991     0    50     1    11
 -1.7160096466136868E-01 a       992     0    50     1    12
  1.0254259298289194E-01 a       993     0    50     1    13
 -3.8065597981398480E-01 a       994     0    50     1    14
  1.0447744997856726E-01 a       995     0    50     1    15
  4.5036579584796477E-01 a       996     0    50     1    16
 -1.7778757409199528E-01 a       997     0    50     1    17
  1.4387128386957346E-01 a       998     0    50     1    18
  1.6341475110545267E-01 a       999     0    50     1    19
 -6.9507770565873234E-02 a      1000     0    50     1    20
  2.8632420903289751E-01 a      1001     0    51     1     1
  2.3887792329920974E-02 a      1002     0    51     1     2
  4.6340991573801067E-02 a      1003     0    51     1     3
 -1.0572390849660353E-01 a      1004     0    51     1     4
  2.7744195919912917E-01 a      1005     0    51     1     5
 -6.1487963401393141E-02 a      1006     0    51     1     6
  5.0961317192414057E-01 a      1007     0    51     1     7
  5.3018015480819039E-02 a      1008     0    51     1     8
 -2.3831732718489756E-01 a      1009     0    51     1     9
  8.0734572301585456E-02 a      1010     0    51     1    10
  4.8166033561550137E-01 a      1011     0    51     1    11
 -2.2619266915476954E-01 a      1012     0    51     1    12
  2.2026750698784903E-01 a      1013     0    51     1    13
 -3.5888285429485599E-02 a      1014     0    51     1    14
 -1.4745516515835808E-01 a      1015     0    51     1    15
 -5.6422523032588612E-01 a      1016     0    51     1    16
  1.4684958366315704E-01 a      1017     0    51     1    17
 -3.1423580924472921E-01 a      1018     0    51     1    18
  1.6822310823571926E-01 a      1019     0    51     1    19
 -2.6806456865183459E-01 a      1020     0    51     1    20
  1.7698836647034857E-01 a      1021     0    52     1     1
  7.2506723530927561E-02 a      1022     0    52     1     2
 -4.0239303231701488E-02 a      1023     0    52     1     3
 -7.3455660843935761E-02 a      1024     0    52     1     4
  1.2514049787824022E-01 a      1025     0    52     1     5
 -1.2307962649278452E-01 a      1026     0    52     1     6
  2.6260534658533280E-01 a      1027     0    52     1     7
 -1.5140944891455979E-01 a      1028     0    52     1     8
  1.0920856456599211E-01 a      1029     0    52     1     9
  9.5039767164668734E-02 a      1030     0    52     1    10
  9.0147519812978794E-03 a      1031     0    52     1    11
 -1.4253685228592991E-01 a      1032     0    52     1    12
 -2.7487869674861037E-01 a      1033     0    52     1    13
 -2.8859030787808682E-01 a      1034     0    52     1    14
 -1.6975207468249973E-01 a      1035     0    52     1    15
  7.5768915507874013E-01 a      1036     0    52     1    16
  1.5760071959078692E-01 a      1037     0    52     1    17
  1.4701751945657940E-01 a      1038     0    52     1    18
  2.1415102208792960E-01 a      1039     0    52     1    19
  9.4008378555796631E-03 a      1040     0    52     1    20
 -2.8322850512330109E-02 a      1041     0    53     1     1
  2.3275820864024738E-01 a      1042     0    53     1     2
  1.9174709369216389E-01 a      1043     0    53     1     3
  2.4293809749176137E-02 a      1044     0    53     1     4
 -9.1991803816922235E-02 a      1045     0    53     1     5
  8.1394921066232348E-02 a      1046     0    53     1     6
 -1.7840687597762669E-01 a      1047     0    53     1     7
  1.2662016281366392E-01 a      1048     0    53     1     8
  1.2046322196081466E-01 a      1049     0    53     1     9
 -1.8556106550478316E-01 a      1050     0    53     1    10
  1.1572821758101789E-01 a      1051     0    53     1    11
 -2.7932413073135998E-01 a      1052     0    53     1    12
 -1.9892854838543936E-01 a      1053     0    53     1    13
 -9.9072113772445777E-02 a      1054     0    53     1    14
  2.5276155921969030E-02 a      1055     0    53     1    15
  1.0369555117447764E-01 a      1056     0    53     1    16
  5.7194102274260306E-02 a      1057     0    53     1    17
  1.0164786585429436E-01 a      1058     0    53     1    18
 -1.5638880982544959E-01 a      1059     0    53     1    19
  7.7644595586845513E-02 a      1060     0    53     1    20
  1.2137862936504928E-01 a      1061     0    54     1     1
  7.5962949245908257E-04 a      1062     0    54     1     2
  4.9160218489088829E-03 a      1063     0    54     1     3
 -1.5523747518699854E-01 a      1064     0    54     1     4
  1.9406624317853846E-01 a      1065     0    54     1     5
  1.9574687002554975E-01 a      1066     0    54     1     6
  2.6510484109559940E-01 a      1067     0    54     1     7
  1.1199997548935300E-01 a      1068     0    54     1     8
 -1.8551096304942849E-01 a      1069     0    54     1     9
 -1.0252967216708747E-01 a      1070     0    54     1    10
  2.2564000545034209E-03 a      1071     0    54     1    11
 -7.4069971263810907E-03 a      1072     0    54     1    12
 -1.0034268031184801E-01 a      1073     0    54     1    13
  1.8541474682475165E-01 a      1074     0    54     1    14
  1.6980029956019241E-01 a      1075     0    54     1    15
 -3.5543352374964310E-01 a      1076     0    54     1    16
 -1.5359274443152207E-01 a      1077     0    54     1    17
  7.0024952332002149E-02 a      1078     0    54     1    18
  5.6280838758266324E-03 a      1079     0    54     1    19
  2.5991981553435001E-01 a      1080     0    54     1    20
  8.5213027857679605E-02 a      1081     0    55     1     1
  1.0361816472455586E-01 a      1082     0    55     1     2
 -5.5285965632221948E-02 a      1083     0    55     1     3
  1.7184276593512690E-01 a      1084     0    55     1     4
  1.2984977816777987E-01 a      1085     0    55     1     5
 -5.1441484441410834E-02 a      1086     0    55     1     6
 -1.6981921898751670E-01 a      1087     0    55     1     7
 -1.4072878130751279E-01 a      1088     0    55     1     8
 -1.0619929982740416E-01 a      1089     0    55     1     9
  3.1601637655585123E-02 a      1090     0    55     1    10
 -1.7320462925284941E-01 a      1091     0    55     1    11
  1.7864853238079942E-01 a      1092     0    55     1    12
 -1.0204285932234361E-01 a      1093     0    55     1    13
 -1.1368792241151925E-01 a      1094     0    55     1    14
  4.4799927004378799E-02 a      1095     0    55     1    15
 -1.2778137307089948E-01 a      1096     0    55     1    16
 -6.0113858359693378E-02 a      1097     0    55     1    17
 -1.2997865403783274E-01 a      1098     0    55     1    18
 -2.3947448895914995E-02 a      1099     0    55     1    19
 -5.2007961770393796E-02 a      1100     0    55     1    20
 -1.2503280258597843E-01 a      1101     0    56     1     1
  6.8580423572698987E-02 a      1102     0    56     1     2
  1.2674069720036793E-01 a      1103     0    56     1     3
 -8.0311569930996279E-02 a      1104     0    56     1     4
  1.7792075583474218E-01 a      1105     0    56     1     5
  7.8815958290637173E-02 a      1106     0    56     1     6
 -5.2712816425771435E-02 a      1107     0    56     1     7
 -1.5667078275889113E-01 a      1108     0    56     1     8
 -1.3559380222433384E-01 a      1109     0    56     1     9
  1.6956934660479003E-01 a      1110     0    56     1    10
  4.6026407579469505E-02 a      1111     0    56     1    11
 -2.0582066655487455E-01 a      1112     0    56     1    12
  3.6178492040282562E-01 a      1113     0    56     1    13
 -1.6717172136374694E-01 a      1114     0    56     1    14
  5.8225235492423130E-02 a      1115     0    56     1    15
  3.3051203951180649E-02 a      1116     0    56     1    16
  1.0540580371555547E-01 a      1117     0    56     1    17
  5.6611575622119138E-02 a      1118     0    56     1    18
  1.3552966244862724E-01 a      1119     0    56     1    19
 -1.0311823401408042E-01 a      1120     0    56     1    20
  1.8315220185644199E-01 a      1121     0    57     1     1
  8.9602178579506267E-02 a      1122     0    57     1     2
  3.0010969486598960E-01 a      1123     0    57     1     3
 -3.6926512620910540E-01 a      1124     0    57     1     4
  3.7564669552515806E-01 a      1125     0    57     1     5
  4.1586258736418447E-01 a      1126     0    57     1     6
 -2.1641075656541436E-01 a      1127     0    57     1     7
 -3.5197901355642984E-02 a      1128     0    57     1     8
  3.5594637111760433E-02 a      1129     0    57     1     9
  8.7457230733082467E-02 a      1130     0    57     1    10
  5.0727203978723556E-01 a      1131     0    57     1    11
 -4.4150301470496589E-01 a      1132     0    57     1    12
  4.3026675137436371E-01 a      1133     0    57     1    13
  8.1802425103930071E-02 a      1134     0    57     1    14
 -4.2098081091055206E-01 a      1135     0    57     1    15
 -3.7094331268160619E-01 a      1136     0    57     1    16
  3.9420513561675985E-01 a      1137     0    57     1    17
 -5.0094339648346864E-01 a      1138     0    57     1    18
  5.6681170651292155E-02 a      1139     0    57     1    19
 -1.3122114178911193E-01 a      1140     0    57     1    20
 -2.9386181157634399E-02 a      1141     0    58     1     1
  1.1468853297350638E-01 a      1142     0    58     1     2
  5.9385409075755465E-02 a      1143     0    58     1     3
 -1.3321846181641453E-01 a      1144     0    58     1     4
  9.2078033599339568E-02 a      1145     0    58     1     5
  1.6228213855647758E-01 a      1146     0    58     1     6
  1.7319517869182641E-01 a      1147     0    58     1     7
  1.8159908712380593E-01 a      1148     0    58     1     8
  1.5018300038403748E-01 a      1149     0    58     1     9
  2.2503301888930641E-01 a      1150     0    58     1    10
  8.2496214339263990E-02 a      1151     0    58     1    11
 -6.9916281787074222E-02 a      1152     0    58     1    12
 -3.4703539531233046E-01 a      1153     0    58     1    13
  1.6704780906194824E-01 a      1154     0    58     1    14
  5.5367889261928045E-02 a      1155     0    58     1    15
  3.9901669171735921E-01 a      1156     0    58     1    16
  8.2544246037579538E-02 a      1157     0    58     1    17
  1.1328909072116845E-01 a      1158     0    58     1    18
  7.1735555662732889E-02 a      1159     0    58     1    19
  7.5825318923304269E-02 a      1160     0    58     1    20
  6.4985207000050477E-02 a      1161     0    59     1     1
  6.1692917211828902E-02 a      1162     0    59     1     2
 -4.2886507948047076E-02 a      1163     0    59     1     3
 -3.9008960423631139E-02 a      1164     0    59     1     4
 -2.6370240952680642E-02 a      1165     0    59     1     5
  1.0420170760458501E-01 a      1166     0    59     1     6
 -1.0662462561006390E-01 a      1167     0    59     1     7
 -3.9185565646749421E-01 a      1168     0    59     1     8
  4.5664059994737034E-03 a      1169     0    59     1     9
 -9.2772277746919748E-02 a      1170     0    59     1    10
 -1.6969336127546283E-01 a      1171     0    59     1    11
 -2.0768704242175701E-01 a      1172     0    59     1    12
 -2.4672450628059550E-01 a      1173     0    59     1    13
 -1.1474729572565128E-02 a      1174     0    59     1    14
 -1.3209307231140005E-01 a      1175     0    59     1    15
 -1.1251998324610803E-01 a      1176     0    59     1    16
 -1.3747568194730500E-01 a      1177     0    59     1    17
  5.4391490658766722E-02 a      1178     0    59     1    18
  1.7874459115792604E-01 a      1179     0    59     1    19
 -2.8110409688994742E-01 a      1180     0    59     1    20
  9.6527668995091839E-02 a      1181     0    60     1     1
 -1.8998443206351601E-01 a      1182     0    60     1     2
  1.3451955747968877E-01 a      1183     0    60     1     3
 -5.8952942310255912E-02 a      1184     0    60     1     4
 -1.2491992629395968E-01 a      1185     0    60     1     5
 -6.7691113747747028E-02 a      1186     0    60     1     6
 -1.3633971560611166E-01 a      1187     0    60     1     7
 -2.1843517761461176E-01 a      1188     0    60     1     8
 -4.0673276226899903E-02 a      1189     0    60     1     9
  3.3594433163475718E-01 a      1190     0    60     1    10
 -1.4324492876648995E-01 a      1191     0    60     1    11
 -1.8980687824160403E-02 a      1192     0    60     1    12
 -3.3129286526792728E-02 a      1193     0    60     1    13
 -1.4244633571487275E-01 a      1194     0    60     1    14
 -9.5339689980214248E-02 a      1195     0    60     1    15
  1.3725170834364081E-01 a      1196     0    60     1    16
  8.9641388711052747E-02 a      1197     0    60     1    17
 -3.9972151972398604E-02 a      1198     0    60     1    18
  1.2728948600181486E-01 a      1199     0    60     1    19
 -8.1347869952520399E-02 a      1200     0    60     1    20
 -1.0789018348618563E-01 a      1201     0    61     1     1
  1.0197294703674006E-01 a      1202     0    61     1     2
  1.6505818440780343E-01 a      1203     0    61     1     3
  6.0415662314566000E-02 a      1204     0    61     1     4
 -7.0185256424556919E-02 a      1205     0    61     1     5
 -1.8446123182371243E-01 a      1206     0    61     1     6
  1.7580397689540858E-01 a      1207     0    61     1     7
  4.7205202603910916E-02 a      1208     0    61     1     8
 -5.0967440616120088E-02 a      1209     0    61     1     9
 -1.9370194133329505E-01 a      1210     0    61     1    10
  3.9077862874440806E-03 a      1211     0    61     1    11
 -3.1226210514535661E-02 a      1212     0    61     1    12
 -5.0765024309646453E-02 a      1213     0    61     1    13
  1.3396544075244218E-01 a      1214     0    61     1    14
  6.2181664053104116E-02 a      1215     0    61     1    15
  1.2516849457136808E-01 a      1216     0    61     1    16
 -2.0558600676032079E-01 a      1217     0    61     1    17
 -1.7212173630080024E-01 a      1218     0    61     1    18
  5.1193331590886196E-02 a      1219     0    61     1    19
 -1.4347194817359235E-01 a      1220     0    61     1    20
  1.9420639822818386E-02 a      1221     0    62     1     1
  1.1536238137496628E-01 a      1222     0    62     1     2
  1.6285202646851651E-01 a      1223     0    62     1     3
 -1.0280200346255650E-01 a      1224     0    62     1     4
  4.5628615246425766E-02 a      1225     0    62     1     5
 -5.9665343966078539E-02 a      1226     0    62     1     6
  1.1946123502702891E-01 a      1227     0    62     1     7
  7.4157050962154469E-02 a      1228     0    62     1     8
 -1.3534561029750364E-01 a      1229     0    62     1     9
 -1.9057035949498646E-01 a      1230     0    62     1    10
  6.9887899453761573E-02 a      1231     0    62     1    11
 -2.3071132579848133E-01 a      1232     0    62     1    12
  7.5723192796095046E-02 a      1233     0    62     1    13
 -2.1192783483884636E-01 a      1234     0    62     1    14
 -2.0064212689250105E-01 a      1235     0    62     1    15
  4.0119411703834462E-01 a      1236     0    62     1    16
  6.1823901954891423E-02 a      1237     0    62     1    17
  1.3411843740524232E-01 a      1238     0    62     1    18
 -1.3806345742146314E-01 a      1239     0    62     1    19
 -2.3355015237352861E-01 a      1240     0    62     1    20
  6.2053195665279275E-02 a      1241     0    63     1     1
  9.2265692176725214E-02 a      1242     0    63     1     2
  2.8365109730743626E-01 a      1243     0    63     1     3
 -3.5292712279248539E-01 a      1244     0    63     1     4
  2.6997246676950171E-01 a      1245     0    63     1     5
  1.1600964373943531E-01 a      1246     0    63     1     6
  4.8080826308995245E-01 a      1247     0    63     1     7
  1.1472428456907711E-01 a      1248     0    63     1     8
 -1.8456748923710559E-01 a      1249     0    63     1     9
  7.6003606781949146E-02 a      1250     0    63     1    10
  3.7585462687164384E-01 a      1251     0    63     1    11
 -1.5794978572645721E-01 a      1252     0    63     1    12
 -1.3840419081994504E-01 a      1253     0    63     1    13
  2.0888116900712980E-01 a      1254     0    63     1    14
 -4.7100836828653259E-01 a      1255     0    63     1    15
 -5.1787580785096665E-01 a      1256     0    63     1    16
  4.8661240596184158E-01 a      1257     0    63     1    17
 -3.7683110417024723E-01 a      1258     0    63     1    18
  3.3340355033808994E-01 a      1259     0    63     1    19
 -1.5563374288353657E-01 a      1260     0    63     1    20
 -1.5429997947276855E-01 a      1261     0    64     1     1
 -4.9128744255326692E-03 a      1262     0    64     1     2
 -5.4418856764386590E-02 a      1263     0    64     1     3
 -1.2346151190231783E-01 a      1264     0    64     1     4
 -4.4286066534180796E-02 a      1265     0    64     1     5
 -4.1282315683742153E-02 a      1266     0    64     1     6
  6.6558468295239537E-02 a      1267     0    64     1     7
  1.2837484221425446E-01 a      1268     0    64     1     8
  1.4565899241017763E-01 a      1269     0    64     1     9
 -1.1830133505293543E-01 a      1270     0    64     1    10
 -1.2559791035675238E-01 a      1271     0    64     1    11
  1.6707030999177999E-01 a      1272     0    64     1    12
 -2.3302554895281941E-01 a      1273     0    64     1    13
  6.3047165568606203E-03 a      1274     0    64     1    14
 -1.9189731494887599E-01 a      1275     0    64     1    15
  7.7563666537838949E-01 a      1276     0    64     1    16
  8.4850067772127696E-02 a      1277     0    64     1    17
 -1.9636024348863446E-01 a      1278     0    64     1    18
  5.9184785493072198E-02 a      1279     0    64     1    19
  1.4564370593386801E-03 a      1280     0    64     1    20
 -1.4634213581746561E-01 a      1281     0    65     1     1
  2.8932271829317353E-02 a      1282     0    65     1     2
  1.3148829684328667E-01 a      1283     0    65     1     3
 -2.2049787088713052E-01 a      1284     0    65     1     4
  1.0558418573114776E-01 a      1285     0    65     1     5
  3.8061219689913516E-02 a      1286     0    65     1     6
 -2.7319744075077435E-01 a      1287     0    65     1     7
  2.0973457321796556E-02 a      1288     0    65     1     8
  1.2152850515963315E-01 a      1289     0    65     1     9
 -2.0148438998816642E-01 a      1290     0    65     1    10
  1.0146740957367219E-01 a      1291     0    65     1    11
 -2.8315240472868447E-01 a      1292     0    65     1    12
 -4.3487352620018366E-01 a      1293     0    65     1    13
  3.4481719886015616E-02 a      1294     0    65     1    14
  7.7476311328367006E-02 a      1295     0    65     1    15
  1.7827600664888338E-01 a      1296     0    65     1    16
 -3.6603900261802963E-02 a      1297     0    65     1    17
 -2.6314979514213571E-01 a      1298     0    65     1    18
 -4.6695885984994717E-02 a      1299     0    65     1    19
 -2.7652830189093064E-01 a      1300     0    65     1    20
  1.1097700318850179E-01 a      1301     0    66     1     1
  2.1039972760568024E-01 a      1302     0    66     1     2
  1.2994669518400920E-01 a      1303     0    66     1     3
 -1.1352328311024729E-01 a      1304     0    66     1     4
  2.9665726480337742E-02 a      1305     0    66     1     5
 -8.0730612756533482E-02 a      1306     0    66     1     6
  3.0567040812652407E-01 a      1307     0    66     1     7
 -5.3518571588964545E-02 a      1308     0    66     1     8
 -2.8370057536038412E-02 a      1309     0    66     1     9
 -1.2045914973872189E-01 a      1310     0    66     1    10
  3.3572358714872722E-04 a      1311     0    66     1    11
  7.8552360998324106E-02 a      1312     0    66     1    12
 -1.2796119674443795E-01 a      1313     0    66     1    13
 -1.1315078845687467E-01 a      1314     0    66     1    14
 -8.8777830131855195E-02 a      1315     0    66     1    15
 -1.2687455817852300E-01 a      1316     0    66     1    16
 -4.4337826656065671E-02 a      1317     0    66     1    17
  1.3782251709203805E-01 a      1318     0    66     1    18
  7.3059500125794555E-02 a      1319     0    66     1    19
 -7.4424563987443848E-02 a      1320     0    66     1    20
 -8.6275457889265605E-02 a      1321     0    67     1     1
  1.3923042239835065E-01 a      1322     0    67     1     2
  1.5565511966262030E-01 a      1323     0    67     1     3
 -8.9774465910155740E-02 a      1324     0    67     1     4
  3.9743616099012537E-02 a      1325     0    67     1     5
  8.7680914945586053E-02 a      1326     0    67     1     6
 -3.0260816165428635E-02 a      1327     0    67     1     7
  3.0573003112690221E-03 a      1328     0    67     1     8
 -1.8902625238853887E-01 a      1329     0    67     1     9
  2.0335703595102100E-01 a      1330     0    67     1    10
 -3.8741007291906847E-02 a      1331     0    67     1    11
  8.7139853569116896E-02 a      1332     0    67     1    12
 -6.7786251814916973E-02 a      1333     0    67     1    13
 -1.0858123908108619E-01 a      1334     0    67     1    14
 -1.2490319213228636E-01 a      1335     0    67     1    15
  1.4180716687188794E-01 a      1336     0    67     1    16
  8.3809346865010459E-02 a      1337     0    67     1    17
 -5.2423782381797845E-02 a      1338     0    67     1    18
  5.9337261578189082E-02 a      1339     0    67     1    19
 -2.1210273111292416E-01 a      1340     0    67     1    20
  1.3759315847730708E-01 a      1341     0    68     1     1
  4.6833445668326798E-02 a      1342     0    68     1     2
  9.3422155950380795E-02 a      1343     0    68     1     3
 -9.6675729701771615E-02 a      1344     0    68     1     4
  6.9074124428523523E-02 a      1345     0    68     1     5
 -1.3317796497396750E-01 a      1346     0    68     1     6
  1.3189166492493101E-01 a      1347     0    68     1     7
 -1.1143189649626713E-01 a      1348     0    68     1     8
 -2.7818626089565046E-01 a      1349     0    68     1     9
  7.4698759100586570E-02 a      1350     0    68     1    10
  2.4172059057088890E-01 a      1351     0    68     1    11
 -2.8329546293177799E-01 a      1352     0    68     1    12
  4.6224539282848931E-01 a      1353     0    68     1    13
 -2.3469495387649750E-03 a      1354     0    68     1    14
 -1.2146189251159170E-01 a      1355     0    68     1    15
  8.1418029473574946E-03 a      1356     0    68     1    16
  1.0257931359981244E-01 a      1357     0    68     1    17
 -6.4108833195073031E-02 a      1358     0    68     1    18
 -4.8277031156774682E-02 a      1359     0    68     1    19
 -1.5239569916029649E-01 a      1360     0    68     1    20
  1.1173334642910778E-02 a      1361     0    69     1     1
  8.4777124352199085E-02 a      1362     0    69     1     2
  1.4284797292991031E-01 a      1363     0    69     1     3
 -4.4765331914945722E-01 a      1364     0    69     1     4
  1.2108235374140354E-01 a      1365     0    69     1     5
  3.8465254377794089E-01 a      1366     0    69     1     6
 -3.0007772182590470E-01 a      1367     0    69     1     7
  1.6682386359918955E-01 a      1368     0    69     1     8
 -1.7264583330338954E-02 a      1369     0    69     1     9
  8.4334987206803796E-02 a      1370     0    69     1    10
  5.6292712157178493E-01 a      1371     0    69     1    11
 -3.2325838132708362E-01 a      1372     0    69     1    12
  5.7902160092936772E-01 a      1373     0    69     1    13
  1.1032784886919389E-01 a      1374     0    69     1    14
 -5.9223622598868164E-01 a      1375     0    69     1    15
 -2.9006523083845576E-01 a      1376     0    69     1    16
  6.1383281273079071E-01 a      1377     0    69     1    17
 -4.0440276589077545E-01 a      1378     0    69     1    18
  4.3035010331937455E-02 a      1379     0    69     1    19
 -3.3382157025342163E-01 a      1380     0    69     1    20
  2.4354673789784006E-02 a      1381     0    70     1     1
 -1.6376570431150134E-01 a      1382     0    70     1     2
  2.8398346091250094E-03 a      1383     0    70     1     3
  1.1756958374234042E-01 a      1384     0    70     1     4
 -1.6920986402642155E-01 a      1385     0    70     1     5
  1.7399214188319370E-01 a      1386     0    70     1     6
 -9.8817265608228108E-02 a      1387     0    70     1     7
 -2.0718511682892157E-01 a      1388     0    70     1     8
  1.3475564165065584E-01 a      1389     0    70     1     9
  2.0050761899449385E-01 a      1390     0    70     1    10
 -5.9189318803323614E-02 a      1391     0    70     1    11
 -1.6419628304387923E-01 a      1392     0    70     1    12
  2.8120474983414787E-02 a      1393     0    70     1    13
  3.1080060744009796E-01 a      1394     0    70     1    14
 -2.0852298476776970E-01 a      1395     0    70     1    15
  4.3230826455792748E-01 a      1396     0    70     1    16
 -1.2146676539952779E-01 a      1397     0    70     1    17
  2.7242221365046983E-02 a      1398     0    70     1    18
  8.7804800609407582E-02 a      1399     0    70     1    19
  8.0145267048853941E-02 a      1400     0    70     1    20
 -1.3531098843310091E-01 a      1401     0    71     1     1
  2.0736964174780806E-01 a      1402     0    71     1     2
  1.0972265107766890E-01 a      1403     0    71     1     3
  1.3703679687868509E-01 a      1404     0    71     1     4
 -9.2970868178986754E-02 a      1405     0    71     1     5
  2.5188775602035152E-01 a      1406     0    71     1     6
 -1.8752373698811806E-01 a      1407     0    71     1     7
  4.0061170162333203E-02 a      1408     0    71     1     8
  3.6057241700238385E-02 a      1409     0    71     1     9
  5.4773198341341372E-03 a      1410     0    71     1    10
  2.1484235913673963E-01 a      1411     0    71     1    11
  5.1696156866640780E-02 a      1412     0    71     1    12
 -4.6142433414843005E-03 a      1413     0    71     1    13
 -1.4117758992648430E-01 a      1414     0    71     1    14
  1.0459196894306477E-01 a      1415     0    71     1    15
 -7.9807661212121475E-02 a      1416     0    71     1    16
 -3.1545557353753216E-02 a      1417     0    71     1    17
  1.4504105944549078E-01 a      1418     0    71     1    18
 -1.8204605184405898E-01 a      1419     0    71     1    19
 -1.9527349679004599E-01 a      1420     0    71     1    20
 -1.0598053433462892E-01 a      1421     0    72     1     1
  5.2260996953140612E-02 a      1422     0    72     1     2
 -4.5957909025832952E-02 a      1423     0    72     1     3
 -8.6766191060122316E-02 a      1424     0    72     1     4
  1.4054460353658468E-01 a      1425     0    72     1     5
 -1.2902042127945917E-01 a      1426     0    72     1     6
 -2.7140913308559106E-01 a      1427     0    72     1     7
  1.2435069309861542E-01 a      1428     0    72     1     8
 -7.9103183675879221E-02 a      1429     0    72     1     9
  4.6297335991094632E-02 a      1430     0    72     1    10
  1.3600144256067934E-01 a      1431     0    72     1    11
 -1.9077649634066149E-01 a      1432     0    72     1    12
 -4.0462095328177867E-05 a      1433     0    72     1    13
  4.3760907267151691E-02 a      1434     0    72     1    14
 -1.7802630573741579E-01 a      1435     0    72     1    15
  2.1121778365094412E-01 a      1436     0    72     1    16
 -1.1029809943072627E-01 a      1437     0    72     1    17
  3.0105699328268058E-02 a      1438     0    72     1    18
 -1.9225362665967713E-01 a      1439     0    72     1    19
 -4.3989838796335112E-02 a      1440     0    72     1    20
  2.6116051016264717E-02 a      1441     0    73     1     1
 -1.4649605773836055E-01 a      1442     0    73     1     2
  1.7855167326281393E-01 a      1443     0    73     1     3
  5.7912790207221232E-02 a      1444     0    73     1     4
 -8.6319524000691688E-03 a      1445     0    73     1     5
 -7.0597361851942153E-02 a      1446     0    73     1     6
  3.5226099861992585E-02 a      1447     0    73     1     7
 -2.0477031765162321E-01 a      1448     0    73     1     8
 -8.9311111473307697E-02 a      1449     0    73     1     9
  6.2101348755583138E-02 a      1450     0    73     1    10
 -1.4978356986019587E-02 a      1451     0    73     1    11
 -5.9389849040810183E-02 a      1452     0    73     1    12
  1.6295639255724279E-01 a      1453     0    73     1    13
  1.2748495079219369E-02 a      1454     0    73     1    14
 -9.0072256837889414E-02 a      1455     0    73     1    15
  7.7142279966288113E-02 a      1456     0    73     1    16
 -5.4389695810527890E-02 a      1457     0    73     1    17
 -1.2007803056076131E-02 a      1458     0    73     1    18
 -1.5982378818530887E-01 a      1459     0    73     1    19
  1.6348234807500567E-01 a      1460     0    73     1    20
 -7.7374728498666168E-03 a      1461     0    74     1     1
 -1.3788962549097841E-01 a      1462     0    74     1     2
  2.1023489013776611E-01 a      1463     0    74     1     3
 -5.0639807497982539E-02 a      1464     0    74     1     4
  1.7024233410157455E-01 a      1465     0    74     1     5
  1.2028754873871705E-01 a      1466     0    74     1     6
  5.5925062733265168E-02 a      1467     0    74     1     7
 -6.2390543458133274E-02 a      1468     0    74     1     8
 -1.8869885819268525E-01 a      1469     0    74     1     9
 -1.3135284180302820E-01 a      1470     0    74     1    10
  1.3403854236253876E-01 a      1471     0    74     1    11
 -1.5187588263559682E-01 a      1472     0    74     1    12
 -1.2134932095224904E-01 a      1473     0    74     1    13
 -1.4132888225498494E-01 a      1474     0    74     1    14
 -1.3022455199997893E-01 a      1475     0    74     1    15
  3.3215409810208080E-01 a      1476     0    74     1    16
  1.5425660615853720E-01 a      1477     0    74     1    17
  1.7262652068862974E-01 a      1478     0    74     1    18
 -9.4249175775269783E-02 a      1479     0    74     1    19
 -2.4558150294834552E-01 a      1480     0    74     1    20
 -5.8407050546715307E-02 a      1481     0    75     1     1
  2.2553421880988214E-02 a      1482     0    75     1     2
  6.7220643663460214E-02 a      1483     0    75     1     3
 -1.1547967144213106E-01 a      1484     0    75     1     4
  3.4138415791299184E-02 a      1485     0    75     1     5
  1.6544589794768413E-01 a      1486     0    75     1     6
  3.1029459782574637E-01 a      1487     0    75     1     7
  2.4723165649055892E-01 a      1488     0    75     1     8
  5.1630858668231354E-02 a      1489     0    75     1     9
 -2.1775459482076896E-02 a      1490     0    75     1    10
  1.6941885571097196E-01 a      1491     0    75     1    11
 -2.6498513454098727E-01 a      1492     0    75     1    12
 -1.4485032146854784E-01 a      1493     0    75     1    13
 -2.5159628732327349E-01 a      1494     0    75     1    14
 -9.6947981772479278E-02 a      1495     0    75     1    15
 -2.7545043300960953E-01 a      1496     0    75     1    16
  2.7014457542419185E-01 a      1497     0    75     1    17
 -3.5060769893877813E-01 a      1498     0    75     1    18
  5.7281925778848421E-02 a      1499     0    75     1    19
 -8.3305909344966234E-02 a      1500     0    75     1    20
  1.6548642711781389E-01 a      1501     0    76     1     1
 -1.7570124778985313E-02 a      1502     0    76     1     2
  1.8804733333092213E-01 a      1503     0    76     1     3
  2.0745360877959831E-01 a      1504     0    76     1     4
  8.7715887610414420E-02 a      1505     0    76     1     5
  1.2098856048323975E-01 a      1506     0    76     1     6
  2.3165580788884968E-01 a      1507     0    76     1     7
 -3.5595924552953885E-02 a      1508     0    76     1     8
 -1.7757002289356863E-01 a      1509     0    76     1     9
 -9.1830698746121320E-02 a      1510     0    76     1    10
 -6.3864144451458216E-02 a      1511     0    76     1    11
 -1.3164675061581524E-01 a      1512     0    76     1    12
  3.7824481795697501E-02 a      1513     0    76     1    13
 -1.7534376958917363E-02 a      1514     0    76     1    14
  1.3929948420731150E-01 a      1515     0    76     1    15
  3.9115687950948153E-01 a      1516     0    76     1    16
 -6.1330587791948825E-02 a      1517     0    76     1    17
 -1.0688615169035304E-01 a      1518     0    76     1    18
 -1.8307149485120558E-01 a      1519     0    76     1    19
  1.8205864502495586E-01 a      1520     0    76     1    20
 -1.7845230846266721E-01 a      1521     0    77     1     1
  1.8887929049154673E-01 a      1522     0    77     1     2
  2.9414851442573289E-02 a      1523     0    77     1     3
  5.3751391215859159E-02 a      1524     0    77     1     4
  2.0554284611139298E-01 a      1525     0    77     1     5
 -6.1144742219299442E-02 a      1526     0    77     1     6
 -1.0722185282988793E-01 a      1527     0    77     1     7
 -1.5607771267823412E-01 a      1528     0    77     1     8
  1.2088881866375036E-01 a      1529     0    77     1     9
 -7.1479692267434281E-02 a      1530     0    77     1    10
 -1.3609476769041115E-01 a      1531     0    77     1    11
 -2.3632723084548618E-01 a      1532     0    77     1    12
 -9.4186232510257067E-02 a      1533     0    77     1    13
  9.1201250372804174E-02 a      1534     0    77     1    14
 -1.1843299688169578E-01 a      1535     0    77     1    15
 -6.8176541384619531E-03 a      1536     0    77     1    16
  2.4899249272628074E-01 a      1537     0    77     1    17
 -2.7023263305595779E-01 a      1538     0    77     1    18
  5.6601318776682806E-02 a      1539     0    77     1    19
 -4.2744461098923818E-02 a      1540     0    77     1    20
  1.3054449509241164E-01 a      1541     0    78     1     1
 -6.2692916694766801E-02 a      1542     0    78     1     2
 -2.2607705183553654E-02 a      1543     0    78     1     3
  1.0180206152958331E-01 a      1544     0    78     1     4
  1.6802599182072622E-01 a      1545     0    78     1     5
  2.0543971749193912E-01 a      1546     0    78     1     6
  2.0204480159054033E-01 a      1547     0    78     1     7
  1.8408921987056537E-01 a      1548     0    78     1     8
 -1.5301556690749110E-01 a      1549     0    78     1     9
  8.5158316809362949E-02 a      1550     0    78     1    10
  1.4113053704038953E-01 a      1551     0    78     1    11
 -1.8988726214813952E-02 a      1552     0    78     1    12
 -1.3198354487083516E-01 a      1553     0    78     1    13
  3.8191432262710992E-03 a      1554     0    78     1    14
 -1.8850990446952012E-01 a      1555     0    78     1    15
 -2.9539180046373736E-01 a      1556     0    78     1    16
  3.6488490012520282E-02 a      1557     0    78     1    17
 -1.7105230400773927E-01 a      1558     0    78     1    18
 -2.0300509054094551E-01 a      1559     0    78     1    19
  1.4166589815252043E-01 a      1560     0    78     1    20
 -1.5392924406989181E-01 a      1561     0    79     1     1
  3.9303494896694704E-03 a      1562     0    79     1     2
  2.0870459160602070E-01 a      1563     0    79     1     3
 -9.3097809803308423E-02 a      1564     0    79     1     4
  6.6412329395988165E-02 a      1565     0    79     1     5
  1.9694893292454427E-01 a      1566     0    79     1     6
 -9.3233387438048057E-02 a      1567     0    79     1     7
  1.0361650699889483E-01 a      1568     0    79     1     8
 -1.2106017468704161E-01 a      1569     0    79     1     9
 -1.3641104803832129E-02 a      1570     0    79     1    10
  1.5198215142629545E-02 a      1571     0    79     1    11
  8.4003753592608907E-02 a      1572     0    79     1    12
  1.2317170721143622E-01 a      1573     0    79     1    13
  1.1817075969660958E-01 a      1574     0    79     1    14
  6.6856128619867172E-02 a      1575     0    79     1    15
 -3.7804803211845289E-02 a      1576     0    79     1    16
 -5.7108956986397723E-02 a      1577     0    79     1    17
 -5.0562401499253180E-02 a      1578     0    79     1    18
 -4.7217516684543027E-02 a      1579     0    79     1    19
  2.0289473396654054E-01 a      1580     0    79     1    20
  7.5650200319315852E-02 a      1581     0    80     1     1
  1.2447748064532113E-01 a      1582     0    80     1     2
  1.8455556758727659E-01 a      1583     0    80     1     3
 -9.7195446780380754E-03 a      1584     0    80     1     4
 -1.6441647963713325E-02 a      1585     0    80     1     5
 -1.5562551161075303E-02 a      1586     0    80     1     6
  9.4377000927263255E-02 a      1587     0    80     1     7
  8.3736472737945822E-02 a      1588     0    80     1     8
 -1.3608883222440549E-01 a      1589     0    80     1     9
  3.1075889583729205E-01 a      1590     0    80     1    10
 -6.1710509665640303E-02 a      1591     0    80     1    11
 -1.3349671528360349E-01 a      1592     0    80     1    12
  2.1776627135992432E-02 a      1593     0    80     1    13
  6.9782404602022258E-02 a      1594     0    80     1    14
  1.0167546231293977E-01 a      1595     0    80     1    15
  4.7132450592778695E-03 a      1596     0    80     1    16
 -9.7367812808683035E-02 a      1597     0    80     1    17
  2.9195276829562498E-02 a      1598     0    80     1    18
 -1.4024060142513933E-01 a      1599     0    80     1    19
 -2.0728520324510624E-01 a      1600     0    80     1    20
  1.0152735248874242E-01 a      1601     0    81     1     1
  1.9513204333473441E-01 a      1602     0    81     1     2
  1.9310416829636923E-01 a      1603     0    81     1     3
 -3.7206805752911393E-01 a      1604     0    81     1     4
 -8.8157226563039398E-02 a      1605     0    81     1     5
 -3.8716387138801769E-03 a      1606     0    81     1     6
  1.1570440697651315E-03 a      1607     0    81     1     7
  2.0262144681497177E-01 a      1608     0    81     1     8
 -2.0110269907600783E-02 a      1609     0    81     1     9
 -5.0052973143765427E-03 a      1610     0    81     1    10
  1.0298182574102546E-01 a      1611     0    81     1    11
 -2.9478591726841480E-01 a      1612     0    81     1    12
  2.3556761795915401E-01 a      1613     0    81     1    13
 -1.3648642491963742E-01 a      1614     0    81     1    14
 -1.8172338731668022E-01 a      1615     0    81     1    15
 -3.2661148534603840E-01 a      1616     0    81     1    16
  4.9490510757706530E-01 a      1617     0    81     1    17
 -4.3355865298056590E-01 a      1618     0    81     1    18
 -6.9171715433198619E-03 a      1619     0    81     1    19
 -1.2073875867382944E-01 a      1620     0    81     1    20
 -1.3518319383468991E-01 a      1621     0    82     1     1
 -1.8918364019227948E-01 a      1622     0    82     1     2
 -7.6940739704108030E-02 a      1623     0    82     1     3
